tree
version=v4
num_class=5
num_tree_per_iteration=5
label_index=0
max_feature_idx=99
objective=multiclass num_class:5
feature_names=Column_0 Column_1 Column_2 Column_3 Column_4 Column_5 Column_6 Column_7 Column_8 Column_9 Column_10 Column_11 Column_12 Column_13 Column_14 Column_15 Column_16 Column_17 Column_18 Column_19 Column_20 Column_21 Column_22 Column_23 Column_24 Column_25 Column_26 Column_27 Column_28 Column_29 Column_30 Column_31 Column_32 Column_33 Column_34 Column_35 Column_36 Column_37 Column_38 Column_39 Column_40 Column_41 Column_42 Column_43 Column_44 Column_45 Column_46 Column_47 Column_48 Column_49 Column_50 Column_51 Column_52 Column_53 Column_54 Column_55 Column_56 Column_57 Column_58 Column_59 Column_60 Column_61 Column_62 Column_63 Column_64 Column_65 Column_66 Column_67 Column_68 Column_69 Column_70 Column_71 Column_72 Column_73 Column_74 Column_75 Column_76 Column_77 Column_78 Column_79 Column_80 Column_81 Column_82 Column_83 Column_84 Column_85 Column_86 Column_87 Column_88 Column_89 Column_90 Column_91 Column_92 Column_93 Column_94 Column_95 Column_96 Column_97 Column_98 Column_99
feature_infos=[0.00046115810616628998:1.0057045340538024] [0:22258] [4.2000000000000002:99.174999999999997] [0:0.52063492063492056] [0:239100] [0:235.05474999999998] [0:3.0256861480772699] [0:60] [0:399955] [0:24467] [2862.6218487394958:11124.466666666667] [0:34.97839296787155] [0.00073880252424195713:1] [0:46376] [0:40.800550882138822] [0:0.46060633092739345] [0:0.4894052334390005] [0:0.31692307692307692] [0:39700] [0:3.4810692741250633] [0:100796] [0:0.99350247116967949] [0:874770] [3.165714285714285:38.243037974683517] [0.059999999999999998:11.506274509803921] [0:29.613781599563985] [0:10504.43533898305] [0.54141666666666666:98.367411764705921] [35110.066666666666:110808.10000000001] [0.6830769230769228:1] [0:7260] [0:4] [44.639365079365071:90.104142011834327] [0:140] [0:29.138416666666668] [0:219.54449625619367] [0:163260] [0:400.82271749398495] [0:118882] [1.0930588235294116:77.867058823529419] [0:96.826333333333352] [0:0.99403607050142773] [49.849566153871713:5334.0100824418996] [0:582010] [0:18375] [0:18429] [0:1205210] [3735.6333333333332:66635.03333333334] [57.589060955518946:1392.75] [0:23.027010739717525] [0.0012247397428046529:1] [0:2.570125] [1.0116279069767442:6] [0:400] [0:185.02547637130107] [0:0.24081192789267028] [0:5457] [0:0.16388888888888889] [1182.0666666666666:58601] [1212.8205128205129:28909.49019607843] [204.65671641791045:679.38461538461536] [0:2965.200194627585] [0:6.3639610306789276] [0:2.3094010767585034] [0:11.92] [0:565880.56785714277] [0:78.925714285714292] [0:700] [3924.8067226890757:188559.43333333332] [0:132942] [0:119134] [300.41025641025641:1453.7333333333333] [0:23720] [1.3299999999999996:37.520999999999944] [0:550.86358622084049] [98.945833333333354:8871.9400000000005] [0:0.091249999999999998] [0.0017339102583031093:0.89107691514089027] [0:34.922703409750198] [0:208.81781204813785] [0:0.76725888324873204] [0:2840.2801138144764] [0:782510.51613684685] [0:14.132440640957952] [0.011627906976744186:6.0084033613445378] [0:14.177618044880425] [0:14.3792319932595] [0:23.482083333333332] [0:400] [5.5:10] [0:21.93857460896254] [0:0.80183908045977015] [54.761673805601184:1003.9076086956519] [0:248320] [0:36.744568396793923] [0:920] [0:114.3458289127487] [33.684864864864863:506.56375000000003] [0:2.3094010767585034] [55.490196078431374:243]
tree_sizes=1300 3372 2751 2341 5374 6936 6965 7042 6960 6736 6936 6983 7075 6957 6750 6924 6952 7055 6958 6769 6950 6935 7053 6931 6775 6972 6925 7008 6942 6799 6939 6953 7036 6920 6759 6969 6896 7023 6944 6804 6967 6868 7051 6964 6784 6955 6959 7069 6961 6774 6955 7001 7040 6989 6770 6981 6979 7041 6946 6788 6953 6861 7048 6954 6775 6975 6934 7053 6985 6765 6974 6967 7069 6969 6805 6980 6995 6995 6959 6759 6978 6983 6997 6941 6793 6987 7015 7049 6930 6778 6990 6995 7029 6970 6790 6992 6987 7013 7014 6757 6996 7012 7034 6983 6737 7010 7017 7064 6992 6783 6986 7051 7051 6977 6763 7014 7015 7028 7017 6774 7030 6923 7039 6986 6800 7020 6927 7037 7001 6779 7051 6988 7055 6979 6809 7038 6982 7065 7019 6780 7026 6890 7034 7034 6843 7022 7018 7063 7017 6795 7036 6953 7081 7083 6794 7038 7021 7064 7031 6863 6985 6877 7101 7063 6862 7055 7022 7079 7040 6831 7031 7084 7132 7038 6823 7051 6980 7098 7048 6823 7056 6984 7113 7070 6817 7059 7005 7106 7082 6808 7034 7025 7135 7071 6833 7062 6977 7117 7028 6861 7055 7038 7147 7110 6847 7059 7041 7130 7115 6867 7080 6955 7126 7068 6848 7086 7013 7155 7111 6878 7069 7061 7150 7121 6892 7077 6959 7131 7089 6853 7061 6962 7132 7086 6848 7075 7001 7132 7121 6893 7068 6949 7156 7151 6881 7066 6979 7160 7082 6877 7071 7007 7171 7097 6870 7079 7003 7209 7137 6870 7068 7090 7162 7151 6889 7070 7043 7170 7152 6913 7075 7024 7168 7135 6887 7078 7018 7218 7125 6894 7103 7014 7179 7142 6872 7097 7030 7224 7175 6887 7087 7029 7195 7143 6885 7085 7067 7197 7150 6904 7092 6991 7193 7156 6913 7095 7022 7226 7156 6934 7111 7028 7222 7138 6927 7105 7039 7213 7137 6962 7129 7056 7215 7131 6930 7108 7053 7247 7145 6924 7111 7018 7220 7160 6936 7103 7097 7257 7178 6943 7128 7060 7249 7196 6927 7124 7069 7263 7207 6929 7125 7069 7275 7151 6935 7108 7013 7257 7191 6959 7141 7062 7245 7190 6956 7171 7044 7278 7214 6959 7153 7093 7246 7196 6974 7158 7063 7262 7226 6961

Tree=0
num_leaves=11
num_cat=0
split_feature=1 7 21 31 10 57 0 0 0 0
split_gain=6733.82 644.737 35.4063 0.353748 0.932984 0.214662 9.09495e-13 4.54747e-13 2.84217e-14 7.10543e-15
threshold=13.500000000000002 5.0000000000000009 0.0031754032258064523 0.2772689075630253 3181.7742296918773 0.027663349533287033 0.51020137758608219 0.49763989572723705 0.16254884686555951 0.28691383079876981
decision_type=2 2 2 2 2 2 2 2 2 2
left_child=6 2 3 5 -5 7 -1 -2 -3 -10
right_child=1 8 -4 4 -6 -7 -8 -9 9 -11
leaf_value=-0.69024424484117108 -0.528766270222637 -0.69024424484117108 -0.69024424484117108 -0.56106186514634382 -0.528766270222637 -0.53953146853053935 -0.69024424484117108 -0.528766270222637 -0.69024424484117097 -0.69024424484117108
leaf_weight=1210.0721504688263 1504.5395545363426 44.278484523296356 3.4060372710227957 3.0963975191116324 8.0506335496902448 4.6445962786674491 23.842260897159576 49.232720553874969 8.0506335496902484 12.385590076446531
leaf_count=3908 4859 143 11 10 26 15 77 159 26 40
internal_value=-0.602036 -0.535575 -0.529211 -0.528862 -0.537737 -0.528798 -0.690244 -0.528766 -0.690244 -0.690244
internal_weight=2871.6 1637.68 1572.97 1569.56 11.147 1558.42 1233.91 1553.77 64.7147 20.4362
internal_count=9274 5289 5080 5069 36 5033 3985 5018 209 66
is_linear=0
shrinkage=1


Tree=1
num_leaves=31
num_cat=0
split_feature=88 71 21 33 36 53 74 83 88 88 20 3 61 69 25 4 0 0 3 0 0 0 0 0 2 6 0 0 2 5
split_gain=1594.72 939.399 126.066 69.5868 1088.06 369.979 254.893 183.565 129.127 966.712 409.575 95.1242 59.9396 44.5913 17.5121 6.23406 6.12264 4.19577 3.7762 1.42109e-14 1.77636e-15 1.77636e-15 1.77636e-15 4.44089e-16 2.22045e-16 2.22045e-16 1.11022e-16 1.11022e-16 1.11022e-16 5.55112e-17
threshold=130.00000000000003 932.55684754521974 0.96626030593235546 45.500000000000007 4.5000000000000009 19.500000000000004 52.265391595321354 0.45250624831255509 35.000000000000007 42.500000000000007 50.000000000000007 0.0035714285714285726 73.876234461645709 589.50000000000011 0.42992678928965145 3577.0000000000005 0.020988667823442355 0.045872258265707795 0.00068651323540963019 0.51722699173406717 0.50485011753108766 0.47580493068695079 0.46279966221333141 0.078090628514805596 6.4017178315870185 0.17419649518880206 0.52453134126544743 0.49239027080169101 7.9341358024691369 105.00552310924371
decision_type=2 2 2 2 2 2 2 2 2 2 2 2 2 2 2 2 2 2 2 2 2 2 2 2 2 2 2 2 2 2
left_child=2 13 3 8 7 14 -7 12 19 10 11 18 -5 -2 15 20 -11 -3 -10 -1 21 22 -6 24 25 -18 -21 -23 -26 -22
right_child=1 17 -4 4 5 6 -8 -9 9 16 -12 -13 -14 -15 -16 -17 23 -19 -20 26 29 27 -24 -25 28 -27 -28 -29 -30 -31
leaf_value=-4.3928327387622437 -1.2460024497375564 -4.078149709859777 -3.081653451668624 -2.3698704101035482 -4.3928327387622437 -4.0781497098597752 -1.2460024497375763 -3.6061251665060756 -1.2460024497375568 -4.0781497098597761 -4.3928327387622437 -2.8194175942499098 -1.2460024497375692 -2.1900515364449764 -3.9432855546158598 -4.0781497098597752 -4.3928327387622437 -4.3928327387622437 -1.560685478640043 -4.3928327387622437 -4.3928327387622437 -4.3928327387622437 -4.3928327387622437 -4.3928327387622437 -4.3928327387622437 -4.3928327387622437 -4.3928327387622437 -4.3928327387622437 -4.3928327387622437 -4.3928327387622437
leaf_weight=120.13675828278065 0.58789314329624065 0.15889003872871399 0.19066804647445579 0.22244605422020214 14.125324442982681 0.15889003872871299 0.15889003872871399 0.19066804647445679 0.23833505809306998 0.15889003872871388 0.20655705034732819 0.15889003872871399 0.25422406196594238 0.15889003872871399 0.22244605422019859 0.15889003872871299 0.22244605422019992 0.31778007745742798 0.15889003872871399 0.42900310456752666 0.46078111231327135 0.9533402323722846 0.61967115104198534 2.9235767126083374 0.79445019364356972 1.5412333756685255 0.77856118977069855 0.25422406196594238 0.20655705034732819 0.20655705034732819
leaf_count=7561 37 10 12 14 889 10 10 12 15 10 13 10 16 10 14 10 14 20 10 27 29 60 39 184 50 97 49 16 13 13
internal_value=-4.35144 -2.55378 -4.36649 -4.36817 -4.27608 -4.35241 -2.66208 -2.29495 -4.38111 -4.1659 -2.49162 -1.78546 -1.77047 -1.44686 -4.38401 -4.38985 -4.38428 -4.28794 -1.37188 -4.39283 -4.39283 -4.39283 -4.39283 -4.39283 -4.39283 -4.39283 -4.39283 -4.39283 -4.39283 -4.39283
internal_weight=147.355 1.22345 146.131 145.941 17.9864 17.319 0.31778 0.667338 127.954 6.60983 0.762672 0.556115 0.47667 0.746783 17.0012 16.7788 5.84715 0.47667 0.397225 121.344 16.6199 15.9526 14.745 5.68826 2.76469 1.76368 1.20756 1.20756 1.00101 0.667338
internal_count=9274 77 9197 9185 1132 1090 20 42 8053 416 48 35 30 47 1070 1056 368 30 25 7637 1046 1004 928 358 174 111 76 76 63 42
is_linear=0
shrinkage=1


Tree=2
num_leaves=25
num_cat=0
split_feature=90 69 80 86 0 22 69 2 9 26 75 90 37 95 23 39 42 0 0 2 0 0 0 0
split_gain=943.252 1542.59 166.929 153.314 409.1 31.3799 336.539 1078.28 12.8066 11.107 79.012 4.24436 86.077 2.65019 19.928 1.90966 20.7213 7.10543e-15 4.44089e-16 2.22045e-16 5.55112e-17 5.55112e-17 2.77556e-17 1.38778e-17
threshold=13.019547881905533 480.50000000000006 0.23102406197367875 0.062811558007864934 0.027151186616203599 2070.0000000000005 2925.5000000000005 6.87449936335224 35.500000000000007 6314.0909298029555 702.06297538730644 0.54302963182232677 23.514177445369423 300.50000000000006 10.355313390313391 2.2901721698113211 980.35112272543165 0.060934602666874303 0.030857305232540825 6.0297700139163561 0.43096515919481004 0.23467856207314666 0.028725365611069337 0.1090177384135011
decision_type=2 2 2 2 2 2 2 2 2 2 2 2 2 2 2 2 2 2 2 2 2 2 2 2
left_child=2 8 3 4 -1 9 -7 -8 -2 11 -11 13 -13 15 -15 16 20 18 19 -17 21 -5 -12 -6
right_child=1 -3 -4 5 23 6 7 -9 -10 10 22 12 -14 14 -16 17 -18 -19 -20 -21 -22 -23 -24 -25
leaf_value=-0.018365870296752185 -4.5499351081886399 5.6460956770678754 -2.8505966439791819 -5.6828274176616116 -5.6828274176616116 -5.6828274176616116 3.3803110581219817 -5.6828274176616116 -5.6828274176616107 -3.4170427987156677 -5.6828274176616116 -3.4170427987156677 -5.6828274176616116 -4.5499351081886399 -5.6828274176616116 -5.6828274176616116 -4.5499351081886648 -5.6828274176616116 -5.6828274176616116 -5.6828274176616116 -5.6828274176616107 -5.6828274176616116 -5.6828274176616116 -5.6828274176616107
leaf_weight=0.044134822674094631 0.044134822674094631 0.048548304941505194 0.052961787208913758 0.2030201843008389 0.070615716278553009 1.6418154034763563 0.04413482267409552 0.12799098575487733 0.05737526947632432 0.044134822674094631 0.22508759563788772 0.044134822674094631 0.83414814854040742 0.044134822674094631 0.3221842055208981 1.1077840491197997 0.044134822674095631 30.563364701811224 3.2394959842786193 1.7389120133593676 0.044134822674095631 0.22508759563788772 0.075029198545962572 0.044134822674095631
leaf_count=10 10 11 12 46 16 372 10 29 13 10 51 10 189 10 73 251 10 6925 734 394 10 51 17 10
internal_value=-5.64129 -1.68438 -5.65585 -5.6595 -4.10937 -5.66557 -5.46231 -3.35895 -5.19027 -5.67509 -5.39234 -5.67762 -5.56897 -5.68016 -5.54633 -5.68148 -5.586 -5.68283 -5.68283 -5.68283 -5.68283 -5.68283 -5.68283 -5.68283
internal_weight=40.9306 0.150058 40.7806 40.7276 0.158885 40.5687 1.81394 0.172126 0.10151 38.7548 0.344252 38.4105 0.878283 37.5323 0.366319 37.1659 0.516377 36.6496 6.08619 2.8467 0.472243 0.428108 0.300117 0.114751
internal_count=9274 34 9240 9228 36 9192 411 39 23 8781 78 8703 199 8504 83 8421 117 8304 1379 645 107 97 68 26
is_linear=0
shrinkage=1


Tree=3
num_leaves=21
num_cat=0
split_feature=67 33 47 32 23 88 72 72 6 42 88 10 25 1 1 3 2 3 1 5
split_gain=256.117 194.209 1000.25 651.361 267.223 76.9106 378.656 289.585 27.9048 3.76554 101.454 2.62708 26.3465 3.55271e-15 1.11022e-16 1.11022e-16 5.55112e-17 5.55112e-17 2.77556e-17 1.38778e-17
threshold=403.00000000000006 110.00000000000001 5325.4399159663872 65.58396863553115 18.675602210608524 67.000000000000014 300.50000000000006 359.00000000000006 0.17867803990267847 1060.0297913205934 42.500000000000007 3123.3949579831938 0.198928010572644 2890.0000000000005 650.00000000000011 0.0025081870384415102 10.14201680672269 0.001314244266371926 13.500000000000002 105.03083683473392
decision_type=2 2 2 2 2 2 2 2 2 2 2 2 2 2 2 2 2 2 2 2
left_child=1 5 8 -4 -5 9 16 -8 15 11 14 12 18 -13 -11 -3 17 -7 -1 -20
right_child=-2 2 3 4 -6 6 7 -9 -10 10 -12 13 -14 -15 -16 -17 -18 -19 19 -21
leaf_value=-5.930632269906102 -1.579474125630937 -5.9306322699061065 2.6010503659274145 -0.65650118593634232 -5.9306322699061065 -5.9306322699061065 -0.58710472430510219 -5.9306322699061056 -4.4802462218144239 -5.9306322699061065 -3.2935667279212235 -5.9306322699061065 -4.4802462218144239 -5.9306322699061065 -5.9306322699061056 -5.9306322699061065 -5.9306322699061056 -5.9306322699061065 -5.9306322699061065 -5.9306322699061056
leaf_weight=0.15857846941800602 0.034473580308257534 0.81012913724407443 0.058605086524039507 0.037920938339084387 0.065499802585691214 0.058605086524038508 0.065499802585691214 0.04136829636991024 0.034473580308258533 0.90665516210719843 0.037920938339084387 28.6682293843478 0.034473580308258533 0.21718355594202776 0.048263012431561947 0.06205244455486536 0.034473580308258533 0.4136829636991024 0.13789432123303413 0.044815654400736094
leaf_count=46 10 235 17 11 19 17 19 12 10 263 11 8316 10 63 14 18 10 120 40 13
internal_value=-5.88684 -5.89149 -5.22883 -1.61033 -3.99678 -5.91443 -5.36026 -2.65557 -5.87548 -5.92567 -5.82991 -5.92892 -5.79757 -5.93063 -5.93063 -5.93063 -5.93063 -5.93063 -5.93063 -5.93063
internal_weight=31.9708 31.9363 1.06868 0.162026 0.103421 30.8676 0.61363 0.106868 0.906655 30.254 0.992839 29.2612 0.375762 28.8854 0.954918 0.872182 0.506762 0.472288 0.341288 0.18271
internal_count=9274 9264 310 47 30 8954 178 31 263 8776 288 8488 109 8379 277 253 147 137 99 53
is_linear=0
shrinkage=1


Tree=4
num_leaves=50
num_cat=0
split_feature=1 16 18 4 53 19 32 39 91 54 72 36 69 33 11 15 36 18 83 39 5 80 29 83 0 10 9 50 25 72 90 15 25 10 10 65 32 17 71 6 90 39 80 69 0 3 3 0 0
split_gain=6184.75 545.43 151.567 96.8758 87.0259 12.7617 6.51526 15.111 3.55478 4.13585 3.17077 2.91734 11.2057 6.95256 7.55764 7.44811 3.48467 60.107 10.6213 3.47578 2.90768 2.56743 1.8766 1.84641 3.12821 1.71074 1.56898 1.29314 1.1437 0.761562 0.306459 0.302384 0.969209 0.285406 0.265511 0.190917 0.175914 1.10888 0.107971 0.217236 0.0679849 1.22583 0.0232098 0.301354 4.54747e-13 7.10543e-15 7.10543e-15 3.55271e-15 3.55271e-15
threshold=13.500000000000002 1.0000000180025095e-35 59.500000000000007 430.00000000000006 19.500000000000004 1.9427228284361415 65.402557599874015 55.544181893687714 0.0083263305322128865 42.776248481802106 317.50000000000006 137.00000000000003 2925.5000000000005 130.00000000000003 0.55677048827695341 0.104195162045133 4.5000000000000009 29.000000000000004 0.45250624831255509 7.0291393925991423 105.33709138655463 0.22133747344590707 0.99676078391632195 0.41375518003506612 0.021890532118314831 7629.5732492997204 1970.0000000000002 0.40116279069767463 1.0289275372817359 182.00000000000003 0.5015770018606498 0.36230528132286316 1.0000000180025095e-35 8908.5356245869152 3790.3025210084038 20395.665556070915 58.682560790273563 0.083012701936120398 487.76568627450985 0.024484469739925779 0.54302963182232677 50.995960941232674 0.011796331435800127 3539.5000000000005 0.51020137758608219 0.0029357897004955833 0.0023474534960119258 0.46741902568401444 0.03052998732886741
decision_type=2 2 2 2 2 2 2 2 2 2 2 2 2 2 2 2 2 2 2 2 2 2 2 2 2 2 2 2 2 2 2 2 2 2 2 2 2 2 2 2 2 2 2 2 2 2 2 2 2
left_child=2 3 5 20 6 11 7 25 -6 -10 34 16 13 23 15 -15 17 -1 19 -19 27 22 28 24 -13 -4 30 -2 31 38 -3 35 -33 -25 -8 36 37 -18 39 -29 42 -42 -38 -44 -40 -34 -36 -5 -16
right_child=1 26 4 47 8 -7 10 -9 9 -11 -12 12 -14 14 48 -17 21 18 -20 -21 -22 -23 -24 33 -26 -27 -28 29 -30 -31 -32 32 45 -35 46 -37 40 -39 44 -41 41 -43 43 -45 -46 -47 -48 -49 -50
leaf_value=-0.74468282059033708 -0.87502470239305163 -0.74468282059033708 -0.74468282059033719 -0.74468282059033708 -0.90761017284373025 -0.82185893481562855 -0.76097555581567655 -0.89279859536614903 -0.90761017284373025 -0.83241293334216415 -0.79899193800813484 -0.8098537614916943 -0.83157740845881345 -0.7679581566265361 -0.74468282059033708 -0.8610595007713322 -0.7772682910410158 -0.90761017284373025 -0.78541465865368543 -0.84243923194237291 -0.85873196716771227 -0.78911755302308073 -0.77726829104101569 -0.74468282059033708 -0.74468282059033708 -0.79356102626635505 -0.77523169913784828 -0.90761017284373025 -0.77430597554549951 -0.88844224904921343 -0.76097555581567644 -0.77726829104101569 -0.74468282059033708 -0.7594943980679183 -0.74468282059033708 -0.75486578010617422 -0.74468282059033708 -0.74468282059033708 -0.90761017284373025 -0.89131743761839088 -0.77726829104101569 -0.74468282059033708 -0.74468282059033708 -0.76097555581567644 -0.90761017284373025 -0.74468282059033708 -0.74468282059033708 -0.74468282059033708 -0.74468282059033708
leaf_weight=150.68065404891968 3.0688524246215811 48.487868309020996 4.2963933944702166 6.1377048492431623 19.640655517578129 5.830819606781005 3.0688524246215882 3.3757376670837402 3.3757376670837393 3.9895081520080566 3.6826229095458975 3.0688524246215811 4.6032786369323722 4.2963933944702131 3.9895081520080558 4.2963933944702148 3.0688524246215847 6.1377048492431623 3.6826229095458975 3.068852424621582 3.0688524246215811 3.3757376670837393 4.6032786369323722 88.996720314025879 4.603278636932373 3.068852424621582 4.9101638793945304 6.1377048492431623 3.3757376670837393 5.2170491218566886 3.0688524246215811 3.0688524246215811 5.8308196067810041 3.3757376670837393 3.0688524246215811 4.9101638793945304 734.06949996948242 17.492458820343018 1518.4681797027588 3.068852424621582 3.0688524246215811 48.487868309020996 37.746884822845459 3.0688524246215811 18.413114547729492 3.068852424621582 10.434098243713377 3.068852424621582 3.068852424621582
leaf_count=491 10 158 14 20 64 19 10 11 11 13 12 10 15 14 13 14 10 20 12 10 10 11 15 290 15 10 16 20 11 17 10 10 19 11 10 16 2392 57 4948 10 10 158 123 10 60 10 34 10 10
internal_value=-0.836916 -0.900895 -0.752001 -0.906397 -0.830888 -0.748074 -0.773719 -0.805199 -0.896501 -0.866878 -0.757026 -0.747702 -0.755074 -0.75203 -0.783019 -0.814509 -0.746849 -0.753548 -0.85718 -0.885887 -0.907353 -0.745597 -0.745428 -0.747182 -0.770751 -0.765049 -0.748225 -0.907449 -0.745259 -0.907513 -0.745653 -0.745146 -0.753038 -0.745224 -0.7477 -0.745035 -0.744978 -0.749546 -0.907578 -0.902179 -0.744864 -0.746622 -0.744747 -0.745908 -0.90761 -0.744683 -0.744683 -0.744683 -0.744683
internal_weight=2846.05 1623.12 1222.94 1566.65 58.0013 1164.94 30.9954 10.741 27.0059 7.36525 20.2544 1159.11 120.299 115.696 15.6511 8.59279 1038.81 163.57 12.8892 9.20656 1557.44 875.237 871.861 100.045 7.67213 7.36525 56.4669 1554.37 867.258 1551.3 51.5567 863.882 11.9685 92.3725 16.5718 851.913 847.003 20.5613 1546.09 9.20656 826.442 51.5567 774.885 40.8157 1536.88 8.89967 13.503 9.20656 7.05836
internal_count=9274 5289 3985 5105 189 3796 101 35 88 24 66 3777 392 377 51 28 3385 533 42 30 5075 2852 2841 326 25 24 184 5065 2826 5055 168 2815 39 301 54 2776 2760 67 5038 30 2693 168 2525 133 5008 29 44 30 23
is_linear=0
shrinkage=1


Tree=5
num_leaves=63
num_cat=0
split_feature=1 7 16 18 5 72 22 41 72 67 72 96 86 25 48 22 37 85 69 96 69 78 73 19 32 18 18 61 28 9 47 10 86 57 10 21 9 25 47 80 65 18 82 50 47 10 30 16 42 26 75 14 6 13 90 80 73 6 69 37 10 32
split_gain=5667.21 547.044 30.5734 0.793945 0.279666 0.233093 0.300524 0.204101 0.179245 0.118026 0.117431 0.1048 0.0578988 0.264753 0.038699 0.0563038 0.0352829 0.025448 0.0367602 0.0692451 0.0232017 0.0191388 0.104567 0.00947774 0.00783129 0.00746961 0.119509 0.0881 0.0253518 0.0183096 0.0342202 0.0619316 0.00625052 0.00418604 0.00359338 0.00315827 0.00310224 0.00267836 0.00257091 0.00241864 0.00140351 0.000856274 0.000832872 0.000638184 0.000610263 0.000576572 0.000562837 0.000558242 0.000496393 0.000227336 0.00195838 0.000223459 0.00216622 0.000241437 0.000189986 0.00018552 0.000156418 0.00015367 0.00337449 0.000643806 0.000302329 0.000214079
threshold=13.500000000000002 5.0000000000000009 0.016016765206959081 59.500000000000007 105.30105042016808 300.50000000000006 270.00000000000006 0.97145089227183246 182.00000000000003 271.50000000000006 342.50000000000006 2.1365911262015431 0.08784036925586694 0.4147500034831087 89.25479148977297 30.000000000000004 26.955710584752122 0.62388354238043575 360.50000000000006 0.64918576078681867 399.50000000000006 4.1566550176169281 5.7007983193277196 1.9427228284361415 64.972487855795109 29.000000000000004 32.500000000000007 73.876234461645709 35474.756302521018 1241.5000000000002 5325.4399159663872 8185.2424499696799 0.15091496648198879 0.0014340589928902993 7508.6833333333343 0.87011764920472767 2181.0000000000005 1.7693224852544271 13068.021880625953 0.21417304404461465 4712.7914002815669 240.50000000000003 47555.560006736392 0.42872258771929822 18462.900000000005 8908.5356245869152 105.50000000000001 0.14849892671835643 1136.5558235091905 6314.0909298029555 709.92452431289655 1.6193452429758894 0.081016453984761233 282.00000000000006 0.48994261918766663 0.10824525911780833 11.517165898617504 0.17795834469935742 2561.5000000000005 23.008673907777382 8454.2010092514738 72.763221030318604
decision_type=2 2 2 2 2 2 2 2 2 2 2 2 2 2 2 2 2 2 2 2 2 2 2 2 2 2 2 2 2 2 2 2 2 2 2 2 2 2 2 2 2 2 2 2 2 2 2 2 2 2 2 2 2 2 2 2 2 2 2 2 2 2
left_child=3 2 4 7 8 6 11 14 9 12 -7 17 13 -2 15 -1 -3 18 19 -5 34 23 33 25 -8 37 27 40 -29 35 -31 -32 -18 -23 -13 42 41 39 47 44 -27 54 -28 -14 45 46 48 -26 49 51 -51 55 -53 -54 -34 56 57 60 59 -59 61 -16
right_child=1 16 -4 5 -6 10 24 -9 -10 -11 -12 20 43 -15 21 -17 32 -19 -20 -21 -22 22 -24 -25 38 26 29 28 -30 30 31 -33 36 -35 -36 -37 -38 -39 -40 -41 -42 -43 -44 -45 -46 -47 -48 -49 -50 50 -52 52 53 -55 -56 -57 -58 58 -60 -61 -62 -63
leaf_value=-0.08089554902528201 0.068756549044978729 -0.075292658217901098 -0.080718622610343738 -0.077656842270918139 0.053463359311327056 -0.059557053078114722 -0.083137787169284591 -0.067418314958106573 0.059031327546492929 0.078379468928995763 -0.07261545178945826 -0.070629645731148619 0.069363142731238933 0.052342401953793541 -0.080666054733814815 -0.071372111410926323 -0.083129560963804763 -0.079068626141975962 -0.07787789456607469 -0.068086597053949038 -0.073931207108873659 -0.078724162072317777 -0.072503522987732757 -0.083314077565231556 -0.081399659689904202 -0.080430019743268855 -0.08065324187259372 -0.074766374972976377 -0.06847664596230725 -0.081346208338350032 -0.068640755249418858 -0.080470928319234511 -0.080642514796386733 -0.08066638746088528 -0.068676048681942478 -0.079076680783672582 -0.081899959440134493 -0.07930710027484715 -0.079204775187662113 -0.079325391754842572 -0.07896574538689248 -0.080001949328586286 -0.07987020273870267 0.068639315703240375 -0.081266268034011935 -0.08118697869300702 -0.080011843467462068 -0.080604094043422267 -0.080099856549064805 -0.079399817994231195 -0.080703539517469974 -0.079291197429244939 -0.081143054122899821 -0.08063755446998977 -0.081045716771820653 -0.080987109960491771 -0.081013579134361496 -0.080088540480967724 -0.079021764559615362 -0.080663927600431201 -0.081036809025958501 -0.081081135406872396
leaf_weight=3.4369557797908774 12.773551017045973 3.024929702281951 3.4372102618217459 3.4121526181697863 3.0581785142421714 3.583734154701232 3.4316499233245876 2.9829688668251029 4.8800867795944205 3.0973817706108084 3.313443511724472 3.0479545593261745 3.0513542294502249 3.0416346490383139 550.29358688741922 2.8298397958278656 2.8058249950408927 4.0918123237788668 4.9725331962108612 4.2372094914317131 3.0845922529697409 3.0895182788372066 4.7703126966953269 3.1390223482158026 3.1233273446559888 3.437175512313841 286.85573634505272 3.0790882110595703 3.3398250341415405 4.684704124927519 1.9845138080418108 2.4998904764652252 44.997027397155762 27.18558806180954 10.335650086402891 3.2503120079636565 5.0370022878050795 3.7344428002834311 3.116412788629531 3.4355548024177542 3.1237345337867737 5.3508625440299502 3.4365558028221121 1510.8806023001671 4.0608281493186942 5.0006919985171399 3.4573657587170592 7.4995518624782562 4.0617319345474234 3.4362298548221615 17.811012625694275 3.117654711008071 3.1238764822483054 9.6868713796138746 3.1244348287582389 4.3738577365875235 3.1240333616733542 4.999209761619567 3.2466448899358502 176.55044069886208 5.6253107076045117 3.1239700317382804
leaf_count=11 42 10 11 11 10 13 11 11 16 10 11 10 10 10 1762 10 9 14 16 15 10 10 16 19 10 11 918 10 11 15 16 8 144 87 34 13 17 12 10 11 10 19 11 4971 13 17 12 24 13 11 57 10 10 31 10 14 10 16 16 565 19 10
internal_value=0.000468147 0.0622845 0.0682363 -0.0802005 0.0685686 -0.0744507 -0.0756315 -0.0804805 0.0685986 0.0686291 -0.0658304 -0.0728528 0.0686093 0.0655997 -0.0805138 -0.0765951 -0.0805642 -0.075642 -0.0745312 -0.0723556 -0.0700219 -0.0805348 -0.0793841 -0.0805705 -0.0810012 -0.0805628 -0.0803564 -0.0756584 -0.0714938 -0.0805579 -0.0783577 -0.0752356 -0.0808243 -0.0804682 -0.069121 -0.0806266 -0.0807137 -0.0806431 -0.0804675 -0.0806492 -0.0797329 -0.080602 -0.080644 0.0686408 -0.0806549 -0.0806518 -0.0806484 -0.080838 -0.0806512 -0.080654 -0.0804927 -0.0806585 -0.0804732 -0.0807608 -0.0806687 -0.0806624 -0.0806605 -0.080659 -0.0806195 -0.0806481 -0.0806721 -0.0806684
internal_weight=2841.2 1608.56 1544.22 1232.64 1540.78 57.25 50.3528 1175.39 1537.72 1532.84 6.89718 33.1819 1529.75 15.8152 1172.41 6.2668 64.3401 16.7137 12.6219 7.64936 16.4682 1166.14 35.0454 1131.09 17.1709 1127.95 315.692 12.9798 6.41891 302.712 9.16911 4.4844 61.3152 30.2751 13.3836 293.543 58.5093 812.263 13.7393 808.529 6.56091 53.4723 290.292 1513.93 805.093 801.032 796.032 10.6229 792.574 788.513 21.2472 767.265 15.9284 12.8107 48.1215 751.337 746.963 743.839 184.796 181.55 559.043 553.418
internal_count=9274 5289 5080 3985 5069 189 165 3796 5059 5043 24 110 5033 52 3785 21 209 56 42 26 54 3764 113 3651 55 3632 1023 42 21 981 39 24 199 97 44 942 190 2609 44 2597 21 173 929 4981 2586 2573 2556 34 2544 2531 68 2463 51 41 154 2412 2398 2388 597 581 1791 1772
is_linear=0
shrinkage=0.05


Tree=6
num_leaves=63
num_cat=0
split_feature=33 18 36 88 88 61 12 42 13 45 23 12 53 9 45 61 99 13 21 2 25 47 25 92 13 2 18 56 57 41 83 39 47 23 67 82 36 7 2 19 12 11 13 16 25 5 42 68 72 9 72 25 23 30 10 1 53 57 13 95 49 26
split_gain=150.14 97.3506 98.5707 61.2011 57.3117 27.0264 24.8184 9.32559 7.65488 8.71257 6.6276 5.23962 3.31786 6.43324 2.13282 1.50621 0.0121134 0.00060727 0.000153552 9.87973e-05 5.56069e-06 1.34297e-06 7.44698e-07 1.38165e-06 6.24202e-07 1.95447e-06 6.05495e-07 5.71092e-07 4.70286e-07 2.82165e-07 2.27228e-07 2.03176e-07 4.43391e-07 4.09505e-07 1.64831e-07 8.3823e-08 2.62773e-07 7.52993e-08 3.74172e-08 1.64329e-08 2.19168e-08 1.02653e-08 8.42413e-09 7.6299e-09 4.10795e-09 3.65809e-09 3.27909e-09 2.82701e-09 2.56067e-09 2.0821e-09 1.3405e-09 1.25321e-09 1.24855e-09 1.20338e-09 1.0733e-09 8.81005e-10 3.15709e-09 7.77838e-10 7.34933e-10 6.14289e-10 6.11644e-10 5.94429e-10
threshold=45.500000000000007 59.500000000000007 4.5000000000000009 35.000000000000007 42.500000000000007 73.552508609742176 0.038062023942400859 401.0841870554234 583.00000000000011 516.50000000000011 19.074203676507839 0.76150935882118687 19.500000000000004 79.500000000000014 258.50000000000006 74.508688878884939 79.47641299510461 502.00000000000006 0.96626030593235546 9.186308161708622 0.42992678928965145 13205.78924731183 0.147386459117928 96.01485884887127 1198.5000000000002 7.6138562091503275 1.0000000180025095e-35 288.50000000000006 0.0060606060606060623 0.96133574477734662 0.63488678714633762 71.443500000000014 5325.4399159663872 18.675602210608524 271.50000000000006 4140.1552299365803 83.500000000000014 17.500000000000004 5.7019335983960318 1.9427228284361415 0.019857769098623877 0.36859099635743225 15.500000000000002 0.016016765206959081 1.7693224852544271 105.30105042016808 1011.4142894512753 11890.023188405799 219.50000000000003 2176.5000000000005 195.50000000000003 0.75905230768202581 19.583571813107401 121.50000000000001 8908.5356245869152 18.500000000000004 19.500000000000004 0.027663349533287033 158.00000000000003 497.00000000000006 4.1866799709446569 6245.7125306096968
decision_type=2 2 2 2 2 2 2 2 2 2 2 2 2 2 2 2 2 2 2 2 2 2 2 2 2 2 2 2 2 2 2 2 2 2 2 2 2 2 2 2 2 2 2 2 2 2 2 2 2 2 2 2 2 2 2 2 2 2 2 2 2 2
left_child=3 2 5 18 7 -2 -3 -5 11 -10 22 12 13 -8 -9 -7 -14 28 26 -18 21 24 27 -24 31 -26 29 38 30 39 -15 35 48 -34 37 36 -4 43 -6 40 -1 46 -39 45 51 50 47 -40 -33 58 52 53 57 54 55 59 -57 -28 -44 61 -37 -42
right_child=1 6 20 4 10 15 8 14 9 -11 -12 -13 16 17 -16 -17 19 -19 -20 -21 -22 -23 23 -25 25 -27 34 -29 -30 -31 -32 32 33 -35 -36 60 -38 42 41 -41 44 -43 49 -45 -46 -47 -48 -49 -50 -51 -52 -53 -54 -55 -56 56 -58 -59 -60 -61 -62 -63
leaf_value=-0.040475274568070513 0.39921928252324906 0.53771458157622287 -0.04050372816818449 0.28585031491790347 -0.040527888986140258 0.098602965243752339 0.16897661844658127 0.17298907157165366 0.36821814219153026 0.16082259780966285 0.29929127278085293 0.25998780199682942 0.16238911136840964 -0.040406727766307653 0.10195856358970752 0.16293014030859465 0.16711207568469982 -0.0439022872367641 -0.041629551583913106 0.166680899850045 -0.040768420769485517 -0.040652978097031688 -0.04067398840566977 -0.040497805286414224 -0.040503487227498497 -0.040689690450322072 -0.04049518591627304 -0.040424609698053997 -0.040584891022664535 -0.040441654530533805 -0.0405034872274984 -0.040510297606902612 -0.040322842109567943 -0.040468151130864764 -0.040439832441434766 -0.040503507213094987 -0.040578766614398895 -0.040516517854891666 -0.040503657936306968 -0.040519470524735889 -0.040503450085009038 -0.040490267904307785 -0.040499924231381677 -0.040503722099836485 -0.040496202491426429 -0.040487322129441575 -0.040497051984075501 -0.040510207719558031 -0.040502140494658515 -0.040509449058663945 -0.040491317909001692 -0.040507256054698224 -0.040490622113133895 -0.040499015824686298 -0.040506741783841664 -0.040503298245906087 -0.040510225060861473 -0.040498327904973534 -0.040503705025361034 -0.040500228534269253 -0.040500469314735665 -0.040502348128414738
leaf_weight=0.069284838624297573 1.3548184335231805 0.51330826431512733 0.47592383623122358 1.6460264613851885 0.15893567446619261 1.3508081212639806 0.90339648723602095 2.886879101395607 1.0866839624941342 0.94829843658953894 0.14706433936953534 1.2850919691845764 2.0952375121414661 0.090493444236926734 1.6671291179955003 2.7885246723890305 2.2758235931396484 0.19394782185554504 0.30049336701631446 3.1918134987354279 0.2058692295104273 0.15566074289381582 0.1819722307845949 0.2864407068118453 0.5677744662389167 0.18745534680783749 75.643239010125399 0.23679498117417086 0.13746573589742184 0.18572977464646001 0.1841430701315403 0.20206261333078224 0.075387261109426618 0.13587375683709979 0.13346507027745147 13.274146300740536 0.15455665066838264 0.14147911034524385 4.5590275013819337 0.15916050448504293 33.134313971291704 0.14780925773084153 0.1391247622668742 0.26098714303225179 0.19591904897242685 0.1486374931409945 0.18181384541094292 0.17092168424278487 0.18365635629743338 0.15521864406764496 0.22474883403628965 0.21636863052844901 0.14962099120020766 0.15309155540307884 0.24715842250588949 0.67493517138063808 0.21751016285270452 0.19749461021274228 1.6886849049478767 0.15245726145803828 0.1677826242521413 1.2707387972623099
leaf_count=5 17 6 31 16 10 11 4 13 16 7 7 13 11 10 19 14 10 2 7 14 9 8 9 19 37 9 5010 19 8 15 12 13 10 19 10 865 9 9 297 19 2167 10 11 17 13 10 12 11 12 10 15 14 10 11 17 44 14 13 110 10 11 83
internal_value=-0.00441584 0.088682 0.0229742 -0.0292549 0.0769276 0.205382 0.197028 0.183853 0.182916 0.271572 -0.0322742 0.165498 0.152113 0.084431 0.146986 0.141938 0.165622 -0.0415952 -0.0405008 0.16686 -0.0405103 -0.0405068 -0.0405057 -0.0405663 -0.0405054 -0.0405497 -0.0404978 -0.0405006 -0.0405094 -0.0405031 -0.0404716 -0.0405031 -0.0404745 -0.0404163 -0.0404954 -0.0405043 -0.0405221 -0.0404954 -0.040504 -0.0405034 -0.0405034 -0.0405033 -0.0405047 -0.0404952 -0.0405034 -0.0404952 -0.0405036 -0.0405039 -0.0405064 -0.0405039 -0.0404952 -0.0405035 -0.0404952 -0.0405034 -0.0405035 -0.0405034 -0.040505 -0.0404952 -0.0405034 -0.0405034 -0.0405035 -0.0405034
internal_weight=162.317 34.186 21.2803 128.131 12.2708 5.49415 12.9057 6.20003 12.3924 2.03498 6.07078 10.3574 9.07232 1.50945 4.55401 4.13933 7.56287 0.60605 115.86 5.46764 15.7861 15.5803 5.92372 0.468413 15.4246 0.75523 115.559 5.4553 0.412102 36.6767 0.274637 14.6694 0.59698 0.211261 78.8827 14.0724 0.63048 78.7492 5.21851 36.4909 36.3318 5.05957 2.12451 76.6247 36.2625 76.3637 4.91176 4.72995 0.385719 1.98303 76.2151 36.0666 75.9904 35.8502 35.6971 35.45 0.892445 75.8407 1.82781 34.5575 13.4419 34.4051
internal_count=9274 1188 1075 8086 442 42 113 48 107 23 394 84 71 36 32 25 35 32 7644 24 1033 1024 387 28 1016 46 7637 359 30 2412 22 970 54 29 5225 916 40 5215 340 2397 2378 330 140 5075 2373 5058 320 308 25 131 5048 2360 5033 2346 2335 2318 58 5023 121 2260 876 2250
is_linear=0
shrinkage=0.05


Tree=7
num_leaves=63
num_cat=0
split_feature=38 19 47 55 44 46 19 80 88 44 6 40 75 77 95 55 59 41 11 60 36 19 54 19 11 19 80 80 80 26 75 26 75 47 96 56 30 11 37 76 23 42 13 11 16 75 49 88 54 1 88 44 58 88 67 3 33 47 23 33 28 15
split_gain=41.072 13.0842 27.4907 40.6572 22.4272 10.5961 4.17617 13.4495 9.95322 6.83508 3.47836 2.90762 16.4089 1.86133 1.73552 17.6544 1.58838 0.712038 0.173467 0.075896 0.0265494 0.0215623 0.0563719 0.0207513 0.0547467 0.00571945 0.000594014 0.000222822 0.000124501 3.97873e-05 4.08712e-05 3.17443e-05 3.2551e-05 2.50381e-05 1.39544e-05 1.17954e-05 1.02346e-05 7.99478e-06 3.06445e-05 6.52412e-06 2.11821e-06 1.36502e-06 1.05125e-06 1.30626e-07 1.10687e-07 1.06281e-08 1.1596e-07 7.97832e-09 1.19018e-08 6.05342e-09 2.86236e-09 9.94936e-09 1.13927e-08 7.22281e-09 2.74149e-09 2.01446e-09 1.89618e-09 1.33486e-08 1.34901e-08 4.66856e-09 2.14687e-09 1.83608e-09
threshold=34161.500000000007 0.36025793634067177 13298.033333333335 0.031007063862297114 300.50000000000006 29.500000000000004 0.22259985200321472 0.30613708437439952 130.00000000000003 161.00000000000003 0.17795834469935742 96.026916666666679 120.74458333333335 0.042292685827056219 300.50000000000006 0.10077210392799171 3808.1740014524335 0.97145089227183246 0.16255636170513363 358.11764705882359 426.50000000000006 0.23514959073840899 52.988677869317648 0.21838442896552776 0.24249681165278045 2.0425869064308508 0.24290310877937124 0.42751585615029303 0.23102406197367875 6314.0909298029555 702.06297538730644 6314.0909298029555 702.06297538730644 13205.78924731183 6.1044420432896223 356.50000000000006 60.500000000000007 0.65482620987802764 22.871276763294514 0.0036996779388083745 10.355313390313391 980.35112272543165 24731.000000000004 1.2268049944017905 0.44158187587031833 118.68979166666669 0.60749349885047599 110.00000000000001 46.006381239046071 13.500000000000002 35.000000000000007 399.00000000000006 2483.7166666666667 42.500000000000007 257.50000000000006 0.0011686151715123228 45.500000000000007 5325.4399159663872 18.675602210608524 76.000000000000014 35481.193277310937 0.099790995612485209
decision_type=2 2 2 2 2 2 2 2 2 2 2 2 2 2 2 2 2 2 2 2 2 2 2 2 2 2 2 2 2 2 2 2 2 2 2 2 2 2 2 2 2 2 2 2 2 2 2 2 2 2 2 2 2 2 2 2 2 2 2 2 2 2
left_child=1 6 5 -4 -5 -3 11 8 9 10 13 14 -13 -8 17 27 -7 23 -18 36 25 22 -11 26 -25 33 31 40 29 34 -31 44 -33 35 37 39 -6 -23 -39 -20 -16 -14 43 -41 45 46 -1 49 -49 50 56 53 -53 55 -51 -52 -47 59 -59 60 -58 -60
right_child=-2 2 3 4 19 16 7 -9 -10 21 -12 12 41 -15 15 -17 18 -19 20 -21 -22 28 -24 24 -26 -27 -28 -29 -30 30 -32 32 -34 -35 -36 -37 -38 38 -40 42 -42 -43 -44 -45 -46 47 -48 48 -50 54 51 52 -54 -55 -56 -57 57 58 61 -61 -62 -63
leaf_value=-0.040135321491112014 -1.109905066248297 0.55498820496288859 2.836653023301182 0.74779051136438579 -0.040136012059944048 0.077563099601113128 0.077436680538074454 0.71166547450744666 0.52227642375376082 -0.040137712568595912 0.26499104544884683 0.9273834771417655 -0.040137398710996926 -0.040136809151658598 -0.040404695320798649 0.92821709368135252 -0.080232168238716414 -0.077902712617755721 -0.04056769509783964 0.029559895670484584 -0.0033474860603821539 -0.040137183511154459 0.021314631278015399 -0.04013496099311966 0.020911777269011601 -0.025116955547579086 -0.042303074251688798 -0.042360504256962576 -0.042382136353799033 -0.041323808708253126 -0.040137478859174486 -0.041316667464711937 -0.040135847253906093 -0.041204580905678301 -0.040920186214725637 -0.04102947696446848 -0.041030493941442731 -0.041207008374486091 -0.040137263025628957 -0.040136422578367685 -0.040136735318402429 -0.040357741829309166 -0.040400827860016086 -0.040227277127538798 -0.040209801618030026 -0.040137317294603819 -0.040221941974789045 -0.040115051540585686 -0.040137502158744148 -0.040135180081717931 -0.0401149216796306 -0.040135191188671773 -0.040095587577052137 -0.040137423053796348 -0.040122882593868543 -0.040130207706482984 -0.040132209159195659 -0.040089056468269497 -0.040136831685327487 -0.040137099367888146 -0.040119940480112644 -0.040119433266549182
leaf_weight=0.42842138558627141 0.087465176358818009 0.083852128125726622 0.017379148397594579 0.18993149697780609 0.084421459119766951 0.31672820542007674 1.2994761040899891 0.066308811306953319 0.088875408051535376 0.13248572265729297 0.20427070325240482 0.05167441675439377 0.16630964213982224 0.45430941972881544 0.11320699099451204 0.051626263651996851 0.31249737739562966 1.2930459650233377 0.12532340036705136 0.054076948203146458 0.05492932815104723 4.2992629073560238 0.051952709909528494 0.13337293709628184 0.050681903958320618 0.06638046121224761 0.32060538977384467 0.19729071855545044 0.066308811306953319 0.15504388511180867 0.13653706666082144 0.11568906530737777 0.11778126587159932 0.086203394457697868 0.060639508999884018 0.051548941992223263 0.051479707006365061 0.085978021379560121 0.30245436728000641 0.43609534669667482 0.21160827670246363 0.12173893488943577 0.04370047664269805 0.043508789036422968 0.050444456283002093 6.8527396407444066 0.042467369232326746 0.11668228870257635 0.11948408419266343 20.921225021418653 0.046401261584834042 0.037752815056592226 0.034989323699846864 0.62692811898887157 0.045418846653773381 0.040247920202091336 0.11429415689781386 0.029346445546252542 0.038785485434345901 2.0329124652780592 0.051826197188347578 0.024898416013456881
leaf_count=102 4 3 2 7 20 2 8 1 18 31 8 10 39 107 10 8 1 14 17 5 13 1010 4 32 4 9 5 3 1 4 32 3 28 4 6 4 4 4 71 103 50 14 4 8 10 1608 8 33 28 4987 13 9 12 147 12 10 28 13 10 478 14 17
internal_value=-0.027489 -0.0253384 0.0990236 0.471761 0.363578 0.00765668 -0.0313133 0.00276848 -0.00363772 -0.0100859 0.0697235 -0.0386063 0.106951 0.0469799 -0.0400497 0.0461813 -0.022205 -0.0415183 -0.0481022 -0.0205396 -0.0370405 -0.039623 -0.0228278 -0.0400659 -0.0233249 -0.0392108 -0.0401616 -0.0410351 -0.0402297 -0.0402014 -0.0407683 -0.0401401 -0.040721 -0.0404005 -0.0401666 -0.0403015 -0.0404748 -0.0401568 -0.040374 -0.0402437 -0.0402301 -0.0402305 -0.0401661 -0.0401447 -0.0401358 -0.0401357 -0.0401431 -0.0401356 -0.0401264 -0.0401356 -0.0401367 -0.0401338 -0.0401161 -0.0401356 -0.0401352 -0.040122 -0.0401369 -0.0401357 -0.0401171 -0.0401364 -0.0401284 -0.04013
internal_weight=44.1093 44.0219 2.01806 0.397289 0.37991 1.62077 42.0038 7.4039 7.33759 7.24872 1.95806 34.5999 0.339723 1.75379 34.2602 0.573732 1.53692 33.6864 1.22019 0.189978 0.90769 5.29066 0.184438 32.3934 0.184055 0.852761 32.2093 0.522106 5.10622 5.03992 0.291581 31.8887 0.23347 0.78638 4.74833 0.700177 0.135901 4.6877 0.388432 0.648628 0.324815 0.288049 0.523305 0.479604 31.6553 31.6048 0.470889 31.1339 0.236166 30.8978 9.93112 0.786319 0.0727421 0.713577 20.9666 0.0866492 9.1448 2.29206 0.0930303 2.19903 0.16612 0.0636839
internal_count=9274 9270 206 38 36 168 9064 1305 1304 1286 123 7759 63 115 7696 71 165 7625 163 29 162 1163 35 7611 36 149 7575 63 1128 1127 36 7570 31 140 1091 136 24 1085 75 132 60 53 115 111 7539 7529 110 7419 61 7358 2359 191 21 170 4999 23 2168 560 40 520 42 27
is_linear=0
shrinkage=0.05


Tree=8
num_leaves=63
num_cat=0
split_feature=21 89 43 52 18 14 67 21 62 2 85 72 14 47 10 25 43 68 88 63 21 51 9 91 88 23 41 88 41 43 62 18 19 26 43 58 72 80 10 67 73 42 42 27 82 24 97 10 68 82 92 14 36 1 86 18 64 83 18 18 46 20
split_gain=10.1821 9.22823 7.45276 16.806 8.14033 6.71848 7.56482 6.69272 6.24817 3.93758 9.48608 3.52345 3.29136 6.38771 2.68786 24.0398 2.70937 1.89733 1.75678 1.68141 3.83471 6.30199 3.95778 1.74421 0.883759 0.552058 0.487272 0.258413 0.172772 0.252007 0.166217 0.132508 0.121065 0.115707 0.0841316 0.0595601 0.0508476 0.0402908 0.0402134 0.0304839 0.000936418 7.80374e-05 3.06195e-05 2.50801e-05 3.81922e-05 1.70273e-05 3.15443e-05 3.31592e-06 1.63867e-06 1.13532e-06 5.71989e-07 7.80904e-09 5.1156e-09 4.71538e-09 4.45545e-09 3.63535e-09 1.97593e-09 9.51535e-10 7.13365e-10 4.19962e-10 5.24982e-10 4.07889e-10
threshold=0.91876329247018873 9.9861545974860579 297.50000000000006 4.9453781512605053 240.50000000000003 1.1484414120487247 426.00000000000006 0.89754585277982357 0.093504958324098594 5.9280073832312645 1.0000000180025095e-35 326.50000000000006 1.1154389069732467 5325.4399159663872 3123.3949579831938 0.16565762353060126 277.50000000000006 7173.0756302521013 67.000000000000014 0.49143034815887904 0.25127190503109104 0.18188882803943049 361.00000000000006 0.11680392156862747 110.00000000000001 18.675602210608524 0.9110803132678138 67.000000000000014 0.90720727548313673 256.50000000000006 0.41275840973526429 36.500000000000007 0.18017481419085182 3667.0829583333339 214.00000000000003 2095.7498599439782 300.50000000000006 0.10824525911780833 7650.5166666666673 403.00000000000006 4.8439978991596657 1060.0297913205934 1385.4237149311809 0.95804166666666679 8856.4096348293806 2.9584661723818351 155.71385183066363 3119.079411764706 6000.7586834733902 6436.6524780927775 69.024035923647816 1.2497860527926861 118.50000000000001 13.500000000000002 0.087981325101664259 59.500000000000007 0.76625686813186811 0.44407080466049487 59.500000000000007 59.500000000000007 399.50000000000006 1.0000000180025095e-35
decision_type=2 2 2 2 2 2 2 2 2 2 2 2 2 2 2 2 2 2 2 2 2 2 2 2 2 2 2 2 2 2 2 2 2 2 2 2 2 2 2 2 2 2 2 2 2 2 2 2 2 2 2 2 2 2 2 2 2 2 2 2 2 2
left_child=2 -2 5 -4 26 7 17 9 -9 10 -1 38 14 -14 15 -11 19 47 -13 23 33 22 37 27 -25 -10 35 28 34 54 -27 -28 -24 59 39 48 52 41 -12 43 -37 -22 58 44 -16 50 -47 -7 -5 51 -45 -3 56 55 -30 -52 -29 -57 -40 -21 -61 -55
right_child=1 49 3 4 -6 6 -8 8 25 12 11 18 13 -15 16 -17 -18 -19 -20 20 21 -23 32 24 -26 30 31 36 29 -31 -32 -33 -34 -35 -36 40 -38 -39 42 -41 -42 -43 -44 45 -46 46 -48 -49 -50 -51 53 -53 -54 61 -56 57 -58 -59 -60 60 -62 -63
leaf_value=0.55740325783527545 -0.57520236122233237 -0.040104823094927688 -0.45449461795721924 -0.04010715427783914 -0.52921922248707343 -0.04038756982471451 0.22978564372316682 0.47001606660156092 0.11248925197043702 -0.040106104961722594 -0.060269341923278444 -0.040107092813435996 -0.040105871681395622 -0.58340399744154359 -0.040107261141041961 1.310328434493087 0.052930083426066733 0.097846529060999318 0.10952467401635416 -0.040106994214919166 -0.040106963593149275 0.40739048913381037 0.10820713371856881 -0.040106786884965356 0.10957692527262133 -0.04010757945862152 -0.040107046189171526 -0.040090051922112679 -0.0400843048484524 0.042789566917658874 0.039387575997685678 0.031194815823249629 0.072113163649168879 -0.062281224107755453 -0.059118504111059261 -0.06107456911917062 -0.062167807110886313 -0.062032303593505846 -0.040107084975018199 -0.048173138980162886 -0.057790202291585838 -0.041412740829838257 -0.041503956326840813 -0.040392757618346355 -0.041409352630523137 -0.041116007103706519 -0.040107193922115286 -0.040106868643396604 -0.040408965747918267 -0.040397396884037345 -0.040107006533587397 -0.040133750132610495 -0.040107002494572462 -0.040105378471213385 -0.040107276981016043 -0.040091050324051122 -0.040103952282300681 -0.040102223934339626 -0.040100485066082242 -0.040098713928700215 -0.040105450598337387 -0.040107190729628983
leaf_weight=0.083578506484627169 0.16222537611611088 0.073342241579666734 0.31400635559111778 0.61284910631366096 0.088846876751631387 0.12478122953325399 0.53914903104305256 0.11038492410443623 0.28643202781677246 0.30003657494671543 0.60908176423981808 0.25319830975786295 0.16787419537285941 0.079827778041362762 0.14002699684353714 0.037021565018221736 0.88053425238467653 0.36261031031608582 0.87076744064688683 0.58532508276402884 0.59489792236127026 0.11145406961441029 0.58248919248580922 0.1494900119923831 0.28973236680030823 0.090365614061738597 0.086508004693314322 0.092205792665481012 0.023507141042499735 0.15235656499862671 0.2414501637686044 0.26404516445472836 0.38645682693459094 1.1866372886579482 0.62130567780695756 0.56498628854751587 1.7444075183011589 0.30246665421873331 0.33618000173009932 1.2326710075139988 0.35238029900938272 0.14166888408362865 0.043654140084981918 0.017391243251046684 0.094202274922281504 0.11965026566758652 0.21990589424967766 0.67077497183345258 0.048535693902522326 0.052647792035713792 7.899512496610444 0.034214842598885298 0.17943593487143517 15.75993345072493 0.20673327706754208 0.042271205456927308 0.035373891936615109 0.03469008905813098 0.046620456501841545 0.030522549990564585 0.55070747621357441 0.31672402936237709
leaf_count=13 3 23 19 184 4 14 3 8 1 91 14 77 52 1 42 8 12 2 4 176 179 9 2 51 1 31 26 33 10 2 6 14 30 13 19 2 12 5 101 7 21 6 1 2 4 12 66 202 5 6 2383 9 54 4811 62 15 11 11 15 10 168 96
internal_value=-0.0294689 -0.309381 -0.0273358 -0.114219 -0.0612757 -0.0222674 0.0750754 -0.0265834 0.123504 -0.0294955 0.0347419 0.0145135 -0.0335763 -0.215196 -0.0322932 0.108222 -0.0336571 0.00305471 0.0758168 -0.0359099 -0.00735068 0.0414329 0.0211202 -0.0402588 0.0586318 0.061636 -0.0397263 -0.0417601 -0.0404547 -0.00709495 0.0177381 0.0135992 0.0938113 -0.0512883 -0.0409364 -0.0515669 -0.0588654 -0.0466676 -0.0520247 -0.0404998 -0.059813 -0.0403581 -0.0402494 -0.040116 -0.0406309 -0.0401111 -0.0404627 -0.0401509 -0.0401293 -0.0402071 -0.0401061 -0.040114 -0.0401016 -0.0401059 -0.0401049 -0.0401069 -0.0400939 -0.0400961 -0.0401063 -0.040106 -0.0401051 -0.0401054
internal_weight=42.6331 0.32243 42.3106 2.33216 2.01815 39.9785 1.69732 38.2812 0.728633 37.5525 2.24308 2.1595 35.3094 0.247702 35.0617 0.337058 34.7247 1.15817 1.12397 33.8442 4.47263 2.11943 2.00798 29.3715 0.439222 0.618248 1.9293 28.9323 26.8809 0.382597 0.331816 0.350553 0.968946 2.35319 26.4983 1.57875 2.05142 1.03903 1.03554 25.877 0.917367 0.736567 0.426455 24.6443 0.234229 24.4101 0.339556 0.795556 0.661385 0.160205 24.0705 0.107557 0.307016 24.0531 0.23024 7.97647 0.12758 0.0769613 0.3828 1.16656 0.58123 16.0767
internal_count=9274 41 9233 275 256 8958 221 8737 46 8691 225 212 8466 53 8413 99 8314 218 81 8302 598 231 222 7704 52 38 252 7652 7542 74 37 40 32 367 7468 212 110 190 131 7449 23 185 117 7442 46 7396 78 216 189 38 7318 32 98 7316 72 2409 44 26 116 354 178 4907
is_linear=0
shrinkage=0.05


Tree=9
num_leaves=63
num_cat=0
split_feature=8 51 13 18 53 9 39 58 76 28 36 18 83 40 68 3 80 13 37 77 65 48 75 25 44 48 25 59 2 25 3 15 96 51 36 81 89 81 48 2 74 63 13 94 58 83 78 97 81 97 77 12 95 45 61 46 27 9 67 3 68 93
split_gain=4882.71 980.991 67.7349 63.4891 95.4714 11.8831 11.3103 6.49203 3.99917 5.06345 2.86178 46.9367 6.9245 3.57368 2.76756 2.19159 1.9428 1.27211 1.17137 2.90502 0.982735 1.37096 0.865821 0.664609 0.49367 0.432508 0.462401 3.11592 0.326579 0.312324 0.285022 0.271279 0.269882 0.236158 0.236739 0.259874 2.24915 0.212605 0.812529 0.174353 0.136106 0.122144 0.246709 0.119257 1.26301 0.678702 0.0602211 0.468642 0.0534744 0.296515 0.0416031 0.04154 0.0382832 0.0382369 0.0260064 0.0215936 0.0206844 0.0199439 0.0118464 0.0103291 0.00955868 0.00434987
threshold=3.5000000000000004 0.26152779893373962 15.500000000000002 59.500000000000007 19.500000000000004 14.000000000000002 66.099747899159681 1501.9260504201682 0.004319584736251404 53259.05000000001 4.5000000000000009 10.000000000000002 0.45250624831255509 89.272773109243715 13375.688832054564 0.0005730706075533663 0.22133747344590707 399.50000000000006 30.299092937945662 0.035929680734093757 1019.2307692307694 82.96391495584929 113.46976401179941 1.7693224852544271 183.00000000000003 89.25479148977297 0.34390255977150058 3200.8500000000008 9.186308161708622 0.012312313017164971 0.12742946708463951 0.094457056473205722 6.1823903541249452 0.20159663865546221 678.00000000000011 457.44520418957717 9.9842275707660342 441.97909289410563 133.4757893157263 5.4790254251694908 95.203568501027632 0.48823698153668821 878.50000000000011 12.718596184192167 2966.3807228915671 0.33098639137704727 4.1566550176169281 110.49629166666668 415.76600900802867 108.15339451570104 0.035471508677943374 0.051436446929109404 220.50000000000003 119.50000000000001 73.989449425048718 161.00000000000003 25.643596638655463 1850.0000000000002 223.50000000000003 0.0035714285714285726 12527.67664041995 58994.000000000007
decision_type=2 2 2 2 2 2 2 2 2 2 2 2 2 2 2 2 2 2 2 2 2 2 2 2 2 2 2 2 2 2 2 2 2 2 2 2 2 2 2 2 2 2 2 2 2 2 2 2 2 2 2 2 2 2 2 2 2 2 2 2 2 2
left_child=1 3 28 10 5 6 17 -6 29 -10 11 -1 13 -13 18 -4 20 -5 19 -7 -12 -22 -23 25 -20 -24 32 -28 -2 -9 -3 -26 33 34 35 37 -37 39 -39 -27 43 52 -43 46 45 -45 48 -48 61 -50 -31 -40 59 -38 -15 -29 -49 -53 -30 -33 -55 -41
right_child=2 30 15 4 7 14 -8 8 9 -11 16 12 -14 54 -16 -17 -18 -19 24 -21 21 22 23 -25 31 26 27 55 58 50 -32 41 -34 -35 -36 36 53 38 51 40 -42 42 -44 44 -46 -47 47 56 49 -51 -52 57 -54 60 -56 -57 -58 -59 -60 -61 -62 -63
leaf_value=0.083792385001766168 -0.050009202452764072 -0.066548302352242766 0.045619167641491834 0.040661718675080991 0.03237676717210608 0.02397126959166786 -0.041866276587608067 -0.044590680650591005 -0.063201202415676463 0.016239734696230173 0.11170045204293766 0.0040593252275685958 0.038225070975520914 -0.066998840385722444 0.032958014287274337 0.1030341249274624 0.045527881301918094 0.084980474785882304 0.10744629542302374 0.086810395012269642 0.026830253756727152 0.034989292278315758 0.067720760404394925 0.063886960115918254 0.06839014147127076 0.074175215159586583 0.14255391754915514 0.088655030961609704 -0.066562775041571251 -0.066975137251587366 -0.050976671546512344 0.080689289571371697 0.069399302364868562 0.070909236687003982 0.071446001454381167 0.15206118324004986 0.093507495200432014 0.048406965562334869 0.089562358167656481 0.08383693920293972 0.075992816828342469 0.084362354965601127 0.10268323162509677 0.06495891414319753 0.05092632625800772 0.083890239812490566 0.065594778284399802 0.088292265293257371 0.10243164068865906 0.083583419299276138 -0.061019331295940164 0.077793133299397521 0.089580769383287365 0.083476641874626903 -0.06029699880377512 0.083953062229624842 0.083810168679008701 0.083935998155104552 -0.063355568042548521 0.083996487487122226 0.085777864692710842 0.083012059904230023
leaf_weight=155.92991030216217 2.9883438348770133 124.67931842803955 2.4831570386886588 3.0714031755924207 2.9716130793094662 2.7979159504175168 4.1217579245567322 2.8326481878757539 3.4646780490875226 4.7638284862041473 3.0598342120647422 2.9193936586379987 4.0260553061962119 3.0068723559379578 2.9299206733703604 5.0264918841421604 3.3963526487350455 3.4244439005851746 2.4874204806983462 5.3675091862678528 1.072850465774535 0.92347016930580039 4.3190652430057517 4.3337430059909812 2.4505348801612845 4.9862264990806571 2.557348225265744 2.7593340277671841 1382.8110144734383 4.1761527657508841 3.0096004605293265 2.5631237588822833 3.4296490848064414 3.7397006452083579 4.0576088625239199 1.3255719766020799 1.2049915790557886 2.0853027403354627 2.1398330628871918 765.94404128403403 5.920268476009368 4.9860790669918051 2.9099205732345581 4.9740696251392356 3.1680058725178233 98.21934175491333 3.9446452260017422 3.071124583482745 2.5310783796012393 11.883227214217184 9.8431566357612592 2.2929953746497631 3.0655542314052573 12.200701954076068 2.7913248538970947 21.217338975518942 15.904522955417631 3.1180973052978516 2.8852179646491996 29.928803592920303 7.1611446146853259 16.32273556292057
leaf_count=500 10 416 8 10 10 10 14 10 12 16 11 10 13 10 10 18 11 11 9 18 4 3 15 14 8 16 11 9 4613 14 10 10 11 12 15 6 4 7 7 2462 19 16 10 16 13 315 13 10 9 39 35 10 10 42 10 69 51 10 10 96 28 55
internal_value=0.000659399 0.0660188 -0.0657106 0.0791035 0.0404511 0.0716441 0.0229182 -0.0375027 -0.0457822 -0.0172095 0.0822865 0.0762521 -0.0160094 -0.0410566 0.080341 0.0840492 0.0832812 0.0640254 0.0827957 0.0652783 0.0834069 0.0833218 0.0833815 0.0834255 0.0857515 0.0835093 0.0835771 0.09009 -0.0665205 -0.0597338 -0.0661813 0.0845759 0.0834007 0.0834499 0.0834981 0.0835486 0.0889343 0.083424 0.0760351 0.0835 0.0835499 0.0854887 0.0911142 0.0835982 0.0820231 0.0829777 0.0838026 0.0812758 0.0838753 0.0868931 -0.0627935 0.083665 0.0842395 0.0848656 -0.0637725 0.0844942 0.0845356 0.0813329 -0.0665561 0.0837356 0.0843278 0.0838197
internal_weight=2813.98 1417.78 1396.19 1290.09 98.1565 70.1044 10.6176 28.0521 25.0805 8.22851 1191.94 168.674 12.7436 8.71759 59.4868 7.50965 1023.26 6.49585 56.5569 8.16543 1019.87 1016.81 1015.74 1014.81 48.3914 1010.48 1006.16 26.534 1388.68 16.852 127.689 45.904 979.625 976.195 972.456 968.398 21.8924 946.506 9.63623 936.869 931.883 43.4535 7.896 925.963 106.361 103.193 819.601 22.9203 796.681 14.4143 14.0193 7.55093 35.5575 20.5668 5.7982 23.9767 18.9756 5.41109 1385.7 32.4919 19.3618 782.267
internal_count=9274 4615 4659 4189 329 232 35 97 87 28 3860 543 43 30 197 26 3317 21 187 28 3306 3295 3291 3288 159 3274 3259 89 4633 59 426 150 3170 3159 3147 3132 80 3052 34 3018 3002 142 26 2983 344 331 2639 74 2565 48 49 27 116 74 20 78 61 20 4623 106 70 2517
is_linear=0
shrinkage=0.05


Tree=10
num_leaves=63
num_cat=0
split_feature=1 16 43 5 72 88 72 72 45 31 78 50 83 71 72 33 47 23 69 32 30 36 37 80 3 47 68 72 88 92 59 25 33 83 61 40 1 33 79 87 33 90 25 81 22 32 10 92 11 81 41 81 58 16 68 64 42 22 3 58 58 3
split_gain=4889.13 415.843 80.2892 2.43174 0.637495 0.171787 0.158918 0.216128 0.176243 0.146548 0.169898 0.05655 0.289874 0.0360222 0.038595 0.028349 0.190708 0.174059 0.0806444 0.0319544 0.0199331 0.044231 0.0188154 0.00666216 0.00652397 0.0126333 0.0772806 0.0187484 0.0403317 0.00682872 0.00615586 0.00542347 0.00555848 0.0825663 0.0725523 0.0050525 0.00456513 0.00375647 0.00355346 0.00353782 0.00270254 0.00270251 0.0018633 0.00172069 0.00147748 0.00172065 0.00143658 0.00118676 0.00113713 0.00308508 0.00110808 0.00101822 0.000864361 0.000799466 0.00073158 0.000716102 0.000547073 0.000492169 0.000449766 0.00143457 0.00286668 0.000472704
threshold=13.500000000000002 1.0000000180025095e-35 18.500000000000004 105.33709138655463 182.00000000000003 67.000000000000014 300.50000000000006 359.00000000000006 216.50000000000003 0.28542016806722698 1.1362832931967519 0.026733162987753082 0.41835308028973284 932.55684754521974 138.50000000000003 110.00000000000001 5325.4399159663872 18.675602210608524 1.0000000180025095e-35 65.820119995247708 33.000000000000007 205.00000000000003 26.955710584752122 0.23102406197367875 0.0033137924043789707 9803.8501400560235 7388.0833333333348 156.50000000000003 35.000000000000007 61.008562998739016 6553.5666666666675 0.29270903523105279 45.500000000000007 0.45250624831255509 73.876234461645709 13.111389486026971 99.500000000000014 130.00000000000003 1.8425019638006734 0.63241666666666696 76.000000000000014 15.709240462951625 1.7693224852544271 21.496670845647412 362.50000000000006 65.149125188536956 3119.079411764706 73.22943389673533 0.65482620987802764 253.10707438623328 0.89170275675282029 457.44520418957717 1823.4131652661067 0.14254513169418573 7538.3893557422971 1.0326778711484594 1136.5558235091905 810.00000000000011 0.006454973118279572 2112.6554621848741 2730.0866878861639 0.14527629233511588
decision_type=2 2 2 2 2 2 2 2 2 2 2 2 2 2 2 2 2 2 2 2 2 2 2 2 2 2 2 2 2 2 2 2 2 2 2 2 2 2 2 2 2 2 2 2 2 2 2 2 2 2 2 2 2 2 2 2 2 2 2 2 2 2
left_child=5 2 3 4 9 11 8 -8 38 20 -11 12 -1 14 -10 23 18 -18 -17 -19 -2 -22 -3 24 25 31 -27 28 -28 -26 -29 32 54 34 -34 -14 -4 -20 -7 44 -35 42 46 -24 -15 -46 -31 -39 52 -50 -43 58 57 -54 55 56 -13 -45 59 -48 -61 -60
right_child=1 22 36 -5 -6 6 7 -9 13 10 -12 15 35 39 -16 16 17 19 37 -21 21 -23 43 -25 29 26 27 30 -30 41 -32 -33 33 40 -36 -37 -38 47 -40 -41 -42 50 -44 48 45 -47 51 -49 49 -51 -52 -53 53 -55 -56 -57 -58 -59 61 60 -62 -63
leaf_value=-0.055458641210921235 0.065053350206548774 -0.070775687104098026 -0.074622463323916227 0.020151719148016414 0.047312269506506979 -0.067645774151316937 -0.057901682660030207 -0.075013647824329732 -0.067710404511856406 0.048735993426502366 0.065265197889506271 -0.074666907275134017 -0.0746318973061985 -0.074541660270524737 -0.074359323164259097 -0.066712739588995748 -0.05724666690705546 -0.067251352768933029 -0.076290257081273863 -0.074632784171131505 0.065065262743285085 0.07120185684284612 -0.076048875236685715 -0.072231586176784685 -0.070823900241084703 -0.065906961115998058 -0.074687729954849777 -0.074619718313981356 -0.067650573256201635 -0.073132995086914537 -0.072316391475382949 -0.072530671394202856 -0.074724240349263144 -0.076026387759585062 -0.065406437412004026 -0.077480813605874096 -0.076813759313212035 -0.075343465533624573 -0.065517616349770713 -0.076475433851615343 -0.074646635128360145 -0.075083951044358208 -0.075879958930778035 -0.074809458046080357 -0.076316512143908555 -0.074877122679615452 -0.074676846157362906 -0.074604297838899533 -0.072646368537041123 -0.074754152262965196 -0.076452303256668269 -0.073966230482105016 -0.073776305875913648 -0.074628796859210297 -0.073913936944995401 -0.073930752675581732 -0.073999481606364242 -0.075377288359800731 -0.074645079563136249 -0.076518092535404605 -0.074681949843023662 -0.07497322116277666
leaf_weight=2.353353336453436 1473.4958712756634 3.2882086336612693 6.5280677676200849 3.0314820706844321 5.0890760719776145 3.0057603418827039 4.5366775989532462 3.110308051109314 3.8913877308368665 2.9701231420040122 3.2620401680469513 285.71956616640091 3.1080979704856873 13.67501443624497 4.9702646732330322 3.2591163516044608 3.1324481219053251 2.4169790614396334 3.7370313405990592 3.7271403968334198 9.4730846583843213 4.255444884300231 2.1802999079227439 3.0830113887786856 1.1559423655271519 2.9802673459053031 5.2856048345565778 51.333513638004661 3.311806708574295 1.5482804477214802 3.0745393931865683 3.3823491036891928 3.7301259040832502 3.7396088838577262 4.748735249042511 3.1170249581336975 3.7376134991645813 5.9128556549549094 5.6457582116127014 4.0489860773086539 69.639829277992249 3.1219862224534145 3.1156099140644065 13.683046072721483 3.1164877116680128 6.2201941609382629 37.308741599321365 66.524547159671783 2.5849387794733039 5.286130279302597 2.812178720254451 5.274493040284141 3.1685537695884731 20.8282630443573 3.4036721587181082 3.4085998535156241 3.103641837835311 5.2919554114341727 551.61079611908644 3.4276672303676587 5.5964292287826538 11.197863072156904
leaf_count=10 4978 11 21 10 17 10 17 10 13 10 11 919 10 44 16 11 14 19 12 12 32 14 7 10 4 10 17 167 11 5 10 11 12 12 16 10 12 19 19 13 224 15 10 44 10 20 120 214 10 17 12 19 11 67 11 11 10 17 1781 11 18 36
internal_value=0.000490837 0.0589664 0.0639355 0.0648883 0.0649788 -0.0743271 -0.0715211 -0.0648617 -0.0726635 0.065039 0.0573877 -0.0744519 -0.0704072 -0.0742064 -0.0714396 -0.0744817 -0.0736226 -0.0668388 -0.0744149 -0.0717291 0.065071 0.0669674 -0.0744458 -0.0745525 -0.0745592 -0.0744133 -0.0737746 -0.0741467 -0.0719769 -0.0746634 -0.0744896 -0.0745239 -0.0745418 -0.0741772 -0.0695056 -0.0760584 -0.0754203 -0.0747444 -0.066257 -0.0751125 -0.074717 -0.0746705 -0.0746603 -0.0746734 -0.0748727 -0.0753576 -0.0746541 -0.0746646 -0.0746144 -0.0740619 -0.0757324 -0.0746579 -0.0747156 -0.0745162 -0.0746427 -0.0746512 -0.0746597 -0.0749678 -0.0746639 -0.0748137 -0.0753794 -0.0746516
internal_weight=2793.78 1568.15 1511.84 1501.58 1498.55 1225.62 52.2208 7.64699 44.5739 1493.46 6.23216 1173.4 8.57848 35.9223 8.86165 1164.82 88.7101 9.27657 79.4336 6.14412 1487.22 13.7285 56.3114 1076.11 1073.03 446.862 65.9857 63.0055 8.59741 626.17 54.4081 380.876 377.494 81.8583 8.47886 6.22512 10.2657 76.1744 8.65152 27.0607 73.3794 625.014 619.08 53.0232 23.0117 9.33668 615.964 72.4374 50.8429 7.87107 5.93416 614.416 42.9718 23.9968 295.635 292.232 288.823 18.975 609.141 46.3328 9.0241 562.809
internal_count=9274 5289 5105 5072 5062 3985 172 27 145 5045 21 3813 30 116 29 3783 301 45 256 31 5024 46 184 3482 3472 1441 215 205 28 2031 177 1226 1215 264 28 20 33 245 29 87 236 2027 2000 173 74 30 1990 233 166 27 27 1985 139 78 951 940 929 61 1966 149 29 1817
is_linear=0
shrinkage=0.05


Tree=11
num_leaves=63
num_cat=0
split_feature=33 18 36 88 88 31 45 61 23 42 13 77 13 61 15 12 99 55 96 21 25 97 4 18 58 88 56 11 41 39 58 23 20 67 82 36 92 9 3 19 12 32 8 42 74 73 52 25 19 58 9 31 50 58 25 60 62 9 69 87 56 24
split_gain=129.259 70.0141 75.6019 55.1034 43.4083 18.6809 23.4133 10.8464 7.01282 5.40403 4.32545 1.90257 1.31946 1.15797 0.984194 0.505998 0.11692 0.0105502 0.008202 0.000129259 4.87097e-06 3.41474e-06 2.23257e-06 1.74316e-06 1.21849e-06 6.42304e-07 4.93657e-07 4.73073e-07 2.28859e-07 2.16336e-07 2.6119e-07 2.02812e-07 1.82685e-07 1.40004e-07 6.74634e-08 2.19771e-07 4.08999e-08 2.61871e-08 2.45024e-08 1.76735e-08 1.82146e-08 1.50187e-08 6.74901e-09 4.39444e-09 4.28902e-09 3.53696e-09 3.24093e-09 1.06922e-08 2.48442e-09 8.16434e-09 1.02549e-08 1.93317e-09 1.59098e-09 1.48049e-09 1.65269e-09 2.86562e-09 1.43823e-09 1.43741e-09 1.29301e-09 4.10541e-09 5.55226e-09 1.71295e-09
threshold=45.500000000000007 59.500000000000007 4.5000000000000009 35.000000000000007 42.500000000000007 0.24120833333333336 258.50000000000006 73.552508609742176 19.212050104172544 395.78649980511562 664.00000000000011 0.024836231122668129 476.50000000000006 74.508688878884939 0.10488066218367277 0.051436446929109404 79.459141494435627 0.073371030088683911 3.6480759866651451 0.96626030593235546 0.42992678928965145 151.22136114911083 3577.0000000000005 1.0000000180025095e-35 3284.4180672268913 150.00000000000003 288.50000000000006 0.22319571441029354 0.96133574477734662 71.443500000000014 2095.7498599439782 18.752695579748952 1.0000000180025095e-35 271.50000000000006 4140.1552299365803 83.500000000000014 162.142723609992 399.50000000000006 0.0003749095227721521 1.9427228284361415 0.019857769098623877 64.828274444362208 19.000000000000004 1011.4142894512753 95.203568501027632 2.36330127025037 2.8479064039408875 1.2034704609742193 0.36025793634067177 3249.6043956043964 1080.5000000000002 0.27848739495798325 0.42872258771929822 7970.6152661064434 0.36061187768102554 349.65989304812837 0.85731789142770076 1914.5000000000002 2111.0000000000005 1.587873949579832 17.500000000000004 0.55410049019607877
decision_type=2 2 2 2 2 2 2 2 2 2 2 2 2 2 2 2 2 2 2 2 2 2 2 2 2 2 2 2 2 2 2 2 2 2 2 2 2 2 2 2 2 2 2 2 2 2 2 2 2 2 2 2 2 2 2 2 2 2 2 2 2 2
left_child=3 2 7 19 9 10 -7 -2 21 -5 11 -3 -11 -9 -13 -16 -17 -18 -19 23 22 25 24 28 29 26 37 -27 39 34 41 -32 33 36 35 -4 -25 43 -34 40 -1 -31 57 45 46 -6 -42 48 53 -50 -51 52 -38 54 58 -56 -53 -40 -48 60 -60 -62
right_child=1 5 20 4 8 6 -8 13 -10 12 -12 14 -14 -15 15 16 17 18 -20 -21 -22 -23 -24 32 -26 27 -28 -29 -30 30 31 -33 38 -35 -36 -37 51 -39 42 -41 44 -43 -44 -45 -46 -47 47 -49 49 50 -52 56 -54 -55 55 -57 -58 -59 59 -61 61 -63
leaf_value=-0.040456098917097609 0.26180662837738172 -0.04165885090890626 -0.040482244746039509 0.22655212654839058 -0.040482645454091346 0.51439580407861951 0.13363925441464447 0.084548734867736411 0.3190764160288051 0.14615121019826677 0.21657378690483553 -0.04066516533926752 0.094926947578046109 0.13835499701344611 0.092681771208784819 0.12794287923213643 0.14307609954566761 0.13690967369603707 0.14078394936073818 -0.041534880324883033 -0.0407354452629815 -0.040730096683327062 -0.040660552498967439 -0.040488929262632443 -0.040625412848347614 -0.040484797740132597 -0.040404449145350622 -0.040605503278708613 -0.04042560290885161 -0.04046364481449205 -0.040357114779483116 -0.040454225140367228 -0.040499473398057248 -0.04041557776763053 -0.040482334214235277 -0.040552394512681306 -0.040462862822221987 -0.040460571045794973 -0.040482039047143176 -0.040499306706991978 -0.040487489529612869 -0.040485250664016335 -0.040471857158551422 -0.04047518572360894 -0.040489747797053 -0.040488718730222382 -0.040482310859147413 -0.040469212544553178 -0.040482547886308555 -0.040464089910822294 -0.040482038519495445 -0.040474742928308299 -0.040468172678993039 -0.040487367198594693 -0.040473959756787144 -0.040482365373351446 -0.040469170968314129 -0.040487196756633738 -0.040473566378718039 -0.040490178469990909 -0.040488670043525715 -0.040483131860078708
leaf_weight=0.066288537345825627 1.9506596811115766 0.15699476003646751 0.45610203221439505 1.8004841078072766 4.4764103582128882 0.80046613141894229 0.8146390913752839 1.4759888648986814 0.1388857178390025 3.2398765608668327 1.7034972719848145 0.080448061227797463 2.0542314983904362 3.1002987176179886 0.66941775940358539 2.457364819943904 2.5174079984426481 2.3284974731504917 3.3051728159189224 0.28727306425571342 0.19737775810062963 0.14357893262058485 0.17979221791029054 0.23836038447916408 0.14928770344704467 0.14787700213491906 0.21348577830940474 0.17995551042258739 0.17852798895910282 0.12181231402792114 0.10204440943198279 0.11364099598722532 0.21300520841032211 0.12636991124600072 13.435559277422724 0.14784009288996458 0.14134916011243959 0.13778146822005499 1.4853883488103745 0.15314000858052068 0.29733953345566888 0.2367730624973774 0.16362565360032011 0.18849525880068529 0.19396770559251209 0.25329589191824187 29.606078674085438 0.15661826729774375 0.88337336615222628 0.15662908403464826 0.16177787818014622 0.18832023162394662 71.71176181267947 0.14862458873540063 0.15908293053507705 0.27961581107228994 0.30078514758497477 0.14859899226576079 0.15019060485064972 0.20919305365532626 0.14896578248590264 2.2256468739360571
leaf_count=5 17 6 31 15 304 11 19 11 5 14 18 4 19 14 4 18 10 10 13 7 9 7 9 16 8 10 18 10 15 11 12 15 14 10 913 9 10 10 101 19 20 16 13 13 13 17 2012 11 61 13 11 13 5017 10 11 19 21 10 17 14 10 151
internal_value=-0.00450604 0.078132 0.0208344 -0.0289987 0.0684649 0.161824 0.322347 0.163082 -0.031996 0.151724 0.142211 0.13121 0.126275 0.121001 0.133599 0.134843 0.137503 0.140385 0.139183 -0.0404757 -0.0404887 -0.0404893 -0.0404854 -0.0404729 -0.0404833 -0.0404832 -0.0404789 -0.0405511 -0.0404821 -0.0404818 -0.0404518 -0.0404083 -0.0404686 -0.0404682 -0.0404831 -0.0404994 -0.0404683 -0.0404821 -0.0404834 -0.0404824 -0.0404823 -0.0404779 -0.0404815 -0.0404827 -0.0404823 -0.040483 -0.0404823 -0.0404822 -0.0404823 -0.0404801 -0.0404732 -0.0404682 -0.0404682 -0.0404824 -0.0404824 -0.0404793 -0.0404713 -0.0404825 -0.0404824 -0.0404834 -0.0404829 -0.0404835
internal_weight=159.655 36.5011 21.6672 123.154 12.9744 14.8339 1.61511 6.52695 5.87977 7.09459 13.2188 11.5153 5.29411 4.57629 11.3583 11.2779 10.6084 8.15108 5.63367 110.18 15.1402 5.74088 14.9429 109.893 14.7631 5.5973 5.26947 0.327833 35.1751 14.6138 0.574271 0.215685 74.7176 72.7069 14.0395 0.603942 72.5806 5.05598 2.01062 34.9965 34.8434 0.358585 1.79761 4.9182 34.7771 4.72971 34.5831 34.2858 34.1292 1.20178 0.318407 72.3422 71.8531 32.9274 32.7788 0.438699 0.489105 1.63399 32.3401 2.734 2.5248 2.37461
internal_count=9274 1188 1075 8086 442 113 30 42 394 48 83 65 33 25 59 55 51 33 23 7644 1033 389 1024 7637 1015 382 362 20 2412 1007 54 27 5225 5087 953 40 5077 344 138 2397 2378 27 124 334 2373 321 2360 2340 2329 85 24 5061 5027 2244 2234 30 34 111 2204 192 178 161
is_linear=0
shrinkage=0.05


Tree=12
num_leaves=63
num_cat=0
split_feature=90 58 69 38 56 90 70 40 81 15 95 62 41 69 95 60 91 72 13 34 95 32 98 71 90 90 37 99 59 37 23 13 73 46 62 55 42 75 71 16 19 47 8 73 15 19 89 19 70 76 3 42 16 19 83 88 88 72 13 85 44 97
split_gain=14.1879 16.9383 15.4669 12.5012 8.4409 9.05927 4.32154 2.43904 16.3419 1.97122 1.45562 13.2024 0.738731 0.351316 0.0327891 0.00668541 0.00220404 0.000178438 0.000117961 8.29661e-05 0.000143626 5.7752e-05 8.62452e-05 8.35083e-05 4.26838e-05 3.77322e-05 7.22849e-05 2.47023e-05 2.19591e-05 7.24458e-06 4.84409e-06 2.18761e-06 1.92113e-06 6.26883e-06 1.46726e-05 7.16225e-07 5.32804e-07 1.08102e-06 1.23862e-07 9.97202e-08 7.1352e-08 6.99983e-08 3.03296e-08 2.76424e-08 7.59831e-08 1.92958e-08 1.57452e-08 1.51898e-08 6.35331e-09 5.79932e-09 5.78272e-09 3.78086e-09 3.35667e-09 7.17311e-09 2.98261e-09 2.5574e-09 2.50339e-09 1.17373e-08 1.84046e-09 1.44741e-09 2.49226e-09 1.07967e-09
threshold=0.43485554381635766 3322.010084033614 734.50000000000011 34161.500000000007 17.500000000000004 0.54302963182232677 470.00000000000006 96.026916666666679 21.265103558032582 0.095500559966886819 300.50000000000006 1.3643948658700038 0.97145089227183246 2925.5000000000005 262.50000000000006 352.37428180574562 0.11214898989898993 156.50000000000003 1280.5000000000002 6.9243697478991617 208.50000000000003 69.687120743034072 0.49131273564078026 1391.1833333333336 0.40593509051143034 0.55051369322823163 23.964359841226681 79.614047097480849 4214.4051036682622 21.541584808920369 10.355313390313391 19852.000000000004 10.461788607264177 161.00000000000003 0.1715336349263438 0.10077210392799171 980.35112272543165 120.74458333333335 927.90856844305131 0.44158187587031833 0.34656789950767147 13205.78924731183 3.5000000000000004 10.372327909079173 0.17495341975541129 0.56434032074266993 9.9967437313382206 0.20447681179368457 24597.000000000004 0.0082702991452991478 0.025190839694656485 267.34370408904499 0.32438802462097677 0.23688250060667854 0.39654799354249554 130.00000000000003 67.000000000000014 300.50000000000006 502.00000000000006 0.31210409094633013 399.00000000000006 169.72566253869971
decision_type=2 2 2 2 2 2 2 2 2 2 2 2 2 2 2 2 2 2 2 2 2 2 2 2 2 2 2 2 2 2 2 2 2 2 2 2 2 2 2 2 2 2 2 2 2 2 2 2 2 2 2 2 2 2 2 2 2 2 2 2 2 2
left_child=3 4 6 7 5 9 15 10 36 -2 12 17 19 41 16 18 25 -12 27 21 -21 32 23 24 29 48 -27 46 -28 -23 -19 -30 39 34 -34 50 37 -9 -33 42 58 47 43 45 -45 49 -3 54 -6 55 -32 -31 61 -54 -11 56 -1 -58 -35 60 -53 -49
right_child=1 2 -4 -5 14 -7 -8 8 -10 13 11 -13 -14 -15 -16 -17 -18 30 -20 20 -22 22 -24 -25 -26 26 28 -29 31 51 35 38 33 40 -36 -37 -38 -39 -40 -41 -42 -43 -44 44 -46 -47 -48 52 -50 -51 -52 59 53 -55 -56 -57 57 -59 -60 -61 -62 -63
leaf_value=-0.040131283755313579 0.076173371993226296 -0.040131283309485143 0.38837569645812869 -0.42082773221223752 -0.040131660429809812 0.35930103143672137 0.25730000284193444 -0.040348392337874003 0.9005580597377425 -0.040110081420020288 -0.042075095922363942 0.69142675816220134 -0.074995361042119082 0.029025542232376911 0.00068271970996729343 -0.022735567654912248 -0.031564814882773504 -0.040545804007099145 -0.042186712813376465 -0.040129964187185653 -0.042264369135846969 -0.040603298637387826 -0.042200420596882601 -0.041966976444255691 -0.041314204022828871 -0.041271248326952871 -0.040951212996531546 -0.041154416822113848 -0.040131870966272 -0.040145593278676221 -0.040130425914152799 -0.040367901793013396 -0.04082719218253851 -0.040127426505734282 -0.0401283392282272 -0.040331923000638564 -0.040350695376553516 -0.040131712567302531 -0.040273410196720698 -0.040201068030728648 -0.040192325107288818 -0.040187624739830646 -0.040127844615355915 -0.040131229157113625 -0.040210755222392577 -0.040165003972763805 -0.04016550330577897 -0.04013136371771045 -0.040150671101727341 -0.040127909880012178 -0.040151369809993953 -0.040129968337000894 -0.040131667545281753 -0.040158745211228898 -0.040126742935265455 -0.040140617382527256 -0.040132659500079736 -0.040104613082561996 -0.040131758798046868 -0.040131455404910234 -0.040115643263310324 -0.040139603734751859
leaf_weight=8.9533251756511252 1.5585336983203877 0.17474879091605522 0.58539023296907544 0.21557750750798632 3.290013015037403 0.24938800092786539 0.16411571204662323 0.096290607005356743 0.053118838928639889 0.08550990605726827 0.21227553486823936 0.068295700009912252 1.5981868347153056 0.2677347008138895 0.04989707889035333 0.056758275255560875 0.07486538030207146 0.1270962986163795 0.13783238222822547 0.20855799410492082 0.12669762596487999 0.089222718030213199 0.068846638314425834 0.077338787261396535 0.089290260802954324 0.22389245405793168 0.10307948803529143 0.082565619610249996 0.61815618583932519 0.043609353713691235 0.18566571758128703 0.11128323385491967 0.11780962767079373 0.6641320572234688 0.20720272185280919 0.057418230921030045 0.11272594099864364 0.1431175759062171 0.050382621120661497 0.048249056562780335 0.046484931372105964 0.059857518877834082 17.668782293098047 0.11406521545723158 0.040771783795207739 0.041299549397081914 0.041620860807597637 0.25274454848840833 0.044543620897456893 1.5290189471561451 0.040070731658488512 0.11294702254235744 0.057227008976042271 0.042713516391813755 0.039161284454166889 0.072056365432218494 0.14821865782141763 0.049850106937810779 0.38858958380296826 0.71387686999514699 0.041525715729221702 0.047173028346151114
leaf_count=2213 5 43 11 4 805 17 1 9 6 25 8 6 15 16 12 14 10 10 4 52 2 14 2 4 9 6 9 4 151 10 46 12 13 168 52 6 13 35 8 10 9 11 4451 28 8 9 9 62 10 385 9 28 14 9 10 17 36 16 95 175 12 11
internal_value=-0.0270539 0.0309462 0.201435 -0.0412625 0.00161887 0.0724199 0.0350332 -0.0388808 0.0830575 0.0427414 -0.0403363 0.0315005 -0.0418284 -0.0184059 -0.0396271 -0.0388788 -0.0400725 -0.0408983 -0.0409766 -0.0401542 -0.0409366 -0.0401458 -0.0404807 -0.0403793 -0.0402667 -0.0402159 -0.0404688 -0.0404186 -0.0402654 -0.0401733 -0.0402894 -0.0401747 -0.0401321 -0.0401887 -0.0403817 -0.0401742 -0.0402611 -0.0402189 -0.0403385 -0.0401292 -0.0401317 -0.0401364 -0.0401291 -0.0401312 -0.0401522 -0.0401309 -0.0401379 -0.0401306 -0.0401319 -0.0401308 -0.0401341 -0.0401312 -0.0401353 -0.0401432 -0.0401153 -0.0401312 -0.0401312 -0.0401256 -0.040129 -0.0401305 -0.0401261 -0.0401327
internal_weight=43.0408 8.46919 1.24303 34.5716 7.22616 2.66004 0.657642 34.356 0.405253 2.41066 33.9508 0.690822 33.26 0.852122 4.56611 0.493526 4.51622 0.622527 0.436768 31.6618 0.335256 31.3265 1.23666 1.16781 1.09047 4.44135 1.10679 0.298935 0.882902 1.00118 0.410251 0.779822 30.0899 1.42422 0.325012 0.283155 0.352134 0.239408 0.161666 28.6656 1.09921 0.584387 28.6174 10.9486 0.154837 10.7938 0.21637 0.524529 3.33456 10.7525 0.225736 0.911959 0.399858 0.0999405 0.124671 9.22345 9.15139 0.198069 1.05272 0.86835 0.154473 0.299918
internal_count=9274 1289 86 7985 1203 180 75 7981 63 163 7918 85 7833 158 1023 74 1011 79 60 7818 54 7764 254 252 248 1001 186 56 180 239 71 171 7510 337 65 61 57 44 20 7173 272 142 7163 2712 36 2676 52 131 815 2667 55 225 96 23 35 2282 2265 52 263 215 40 73
is_linear=0
shrinkage=0.05


Tree=13
num_leaves=63
num_cat=0
split_feature=21 43 52 31 78 31 10 68 2 42 18 16 51 62 49 72 71 31 91 6 88 65 20 21 41 15 88 33 61 59 39 78 43 68 72 58 82 88 56 24 49 96 11 8 17 23 73 84 42 88 16 2 10 68 33 10 25 85 1 60 42 51
split_gain=6.52404 6.32437 10.2171 6.38766 16.0281 5.74966 6.76307 6.03843 4.91594 5.91908 4.55694 3.58122 3.61741 3.33163 2.99603 2.53158 1.6343 3.1883 1.55881 2.36099 1.51123 0.532199 4.00218 0.511644 0.460031 0.413983 0.322098 0.147409 0.133863 0.687489 0.0899635 0.0866165 0.133614 0.0533904 0.0511116 0.0491681 0.0392134 0.0327958 0.0298397 0.00340664 0.00443115 0.00331123 0.00189942 0.00138604 0.00350276 0.00236165 0.00124683 0.0020691 5.36702e-05 3.59248e-05 3.06413e-05 2.77202e-05 2.82366e-06 1.43881e-06 1.08241e-06 5.66538e-07 1.87687e-06 1.44567e-07 1.53147e-08 8.64561e-09 7.94258e-09 4.28506e-09
threshold=0.91876329247018873 297.50000000000006 4.9453781512605053 0.25829166666666675 7.6476669089613063 0.26924369747899163 3123.3949579831938 5642.3193277310938 5.9280073832312645 1385.4237149311809 240.50000000000003 0.42768173392803915 0.18188882803943049 0.33352261978464542 0.21829558952112063 326.50000000000006 487.57983193277317 0.25294117647058828 0.058053294573643423 0.2055128520939172 67.000000000000014 13431.52361607143 70.000000000000014 0.89226728159861912 0.9110803132678138 0.10953403002967452 67.000000000000014 110.00000000000001 72.235525346814015 4228.1708991077567 72.571741946778715 4.4578672796985996 256.50000000000006 7465.4000000000005 317.50000000000006 2095.7498599439782 3339.5050038623135 110.00000000000001 299.00000000000006 0.47054056237879743 0.32885325344732597 8.0157491107241388 0.19229292333539008 2041.0000000000002 0.11565563725490201 7.0117647058823529 11.236036706349227 2.1525793650793656 1060.0297913205934 42.500000000000007 0.34103676583635251 9.7672825740681759 3114.4434173669474 6000.7586834733902 130.00000000000003 3123.3949579831938 0.16565762353060126 1.0000000180025095e-35 13.500000000000002 254.71794871794876 211.78302275882808 0.18333333333333338
decision_type=2 2 2 2 2 2 2 2 2 2 2 2 2 2 2 2 2 2 2 2 2 2 2 2 2 2 2 2 2 2 2 2 2 2 2 2 2 2 2 2 2 2 2 2 2 2 2 2 2 2 2 2 2 2 2 2 2 2 2 2 2 2
left_child=1 3 -3 4 8 6 -5 -8 9 15 24 14 -13 54 -10 38 17 30 21 37 -17 26 36 33 35 -9 31 -26 -21 -30 -16 32 39 52 -28 53 -23 60 57 40 42 50 -18 46 -45 -46 48 -48 55 -50 -38 -52 -7 -4 59 56 -41 -1 61 -2 -20 -57
right_child=13 2 10 5 -6 23 7 25 11 -11 -12 12 -14 -15 16 20 18 -19 19 28 -22 22 -24 -25 27 -27 34 -29 29 -31 -32 -33 -34 -35 -36 -37 41 -39 -40 43 -42 -43 -44 44 45 -47 47 -49 49 -51 51 -53 -54 -55 -56 58 -58 -59 -60 -61 -62 -63
leaf_value=-0.040186404163929053 -0.040131374741927364 -0.33378017934256116 -0.040102743518382722 0.49978884313342437 0.78179706102788415 -0.040359711090980431 -0.040101928741800949 0.090613302778137589 0.12159283155695713 0.39457468280984198 -0.34616610798979114 -0.040993403654251567 0.32976447219913385 -0.33243150931648502 -0.040101794759648181 -0.04010474108968929 -0.040101118149281675 -0.33945222706277545 -0.040142677196867704 0.10347838503246679 0.10052056795004689 -0.058979734805650212 0.092661997272876648 0.027488365959645211 -0.040103882716867746 0.13988865261241282 -0.040099573950719898 0.033532869154850119 0.10030086935592419 -0.040103892660408751 0.039325083634046964 -0.05921116807046245 0.014430167535834162 -0.059651349833929751 -0.060855899997377005 -0.058334209809384689 -0.040100675012787336 -0.061355886366791734 -0.060821011456411958 -0.040101117641802284 -0.040099856941455278 -0.047065003143577616 -0.047063738264856013 -0.040099715062975994 -0.04009973512572098 -0.047548887873585938 -0.040100654819368947 -0.046756328012488295 -0.040105063728183163 -0.041441012378206271 -0.041435680490604719 -0.040102156574205412 -0.040102249333359555 -0.040391602867294089 -0.040397728625294775 -0.040102673077550006 -0.040392543915798725 -0.040101721560104331 -0.040099802059282069 -0.040100719376958333 -0.040102598470720029 -0.040111883647780421
leaf_weight=0.057710507418959334 0.033433482749386623 0.40682950452901367 0.58774102572351672 0.092458436032756608 0.060816812561823919 0.12202188465744235 0.90443249116651747 0.73828246048651625 0.29559210338630038 0.11447666212916363 0.1291059146169572 0.12885014642961223 0.13442646665498614 0.26506918261293322 0.066451136488470008 0.2422970189436453 0.11944455956110889 0.12993921339511871 0.012696405872701488 0.29641816952971567 0.90326119889505208 0.30568798608146508 0.63254725956358004 0.26974199060350645 0.093552729580551275 1.0085212616249917 0.33542287885211353 0.24846749450080097 0.30135761038400233 0.12267613762651308 0.076916765188798308 0.61515620280988415 0.11141996015794475 0.55225861072540283 2.5619103447534144 0.89192644553259015 3.8372610567603265 0.29140945011749864 0.28142619132995605 0.23567956569605897 0.69548405590467155 0.17980065057054151 0.54437817889265716 1.0417901626788069 0.15505943377502251 0.33905828697606921 0.30370762149686825 0.18971436098217964 0.083846484310924008 0.12585540860891342 0.083619359880685695 0.072984210914000869 0.83688230541883968 0.046521516982465982 0.047172132646664977 6.6907684762773014 0.07216489315032959 0.39780583698302507 10.470020833425222 0.073699376080185175 0.46873921086080372 0.1287060526665299
leaf_count=10 9 19 184 12 13 15 286 14 29 2 4 16 4 3 21 76 38 1 3 2 5 9 12 17 29 6 109 11 2 40 2 15 12 2 16 23 1227 3 1 75 224 5 16 336 50 3 98 8 26 3 2 23 265 5 5 2105 6 126 3374 24 155 38
internal_value=-0.0286925 -0.0266974 -0.105394 -0.0218261 -0.029189 0.0340152 0.0794254 0.0647658 -0.0306289 0.0454988 -0.0588745 -0.0353419 0.148312 -0.224907 -0.0368532 0.0242712 -0.0383307 -0.16007 -0.0372719 0.0125846 0.0707769 -0.0397593 -0.0250684 -0.0359446 -0.0390208 0.119063 -0.0427851 0.013391 0.0777006 0.0596807 0.00251066 -0.0407143 -0.0401803 -0.0472673 -0.058453 -0.0507663 -0.0416935 -0.048117 -0.0480207 -0.0404674 -0.0428889 -0.0404275 -0.0458109 -0.0403015 -0.0417442 -0.0452113 -0.0401804 -0.0426597 -0.0401117 -0.0409069 -0.0401287 -0.0408142 -0.040135 -0.0401239 -0.0401982 -0.0401022 -0.0401694 -0.0401125 -0.040101 -0.0401103 -0.0401037 -0.0401028
internal_weight=41.6629 41.2435 2.40414 38.8394 34.3148 4.5246 2.74369 2.65124 34.2539 1.99698 1.99732 32.257 0.263277 0.419374 31.9937 1.8825 31.6981 0.273307 31.4248 1.4933 1.14556 29.9315 5.1119 1.7809 1.86821 1.7468 24.8196 0.34202 0.720452 0.424034 0.143368 21.9223 21.3071 1.51116 2.89733 1.52619 4.47935 0.772845 0.736943 21.1957 1.35931 4.17367 0.663823 19.8364 1.53591 0.494118 18.3005 0.493422 17.807 0.209702 3.99386 0.156604 0.958904 0.634263 0.154305 17.5973 0.307844 0.455516 17.2895 0.107133 0.481436 6.81947
internal_count=9274 9233 275 8958 8341 617 318 306 8328 220 256 8108 20 41 8088 218 8059 24 8035 205 81 7830 1278 299 252 20 6552 40 44 42 23 6427 6412 282 125 212 1266 161 137 6400 278 1257 54 6122 389 53 5733 106 5627 29 1252 25 280 189 38 5598 81 136 5517 33 158 2143
is_linear=0
shrinkage=0.05


Tree=14
num_leaves=63
num_cat=0
split_feature=8 76 13 18 53 13 70 47 37 99 36 18 78 75 44 80 10 47 21 54 48 90 64 42 63 61 2 49 39 2 21 99 21 18 17 49 99 94 61 99 94 90 77 78 49 78 78 85 78 32 68 28 67 46 47 61 87 4 69 32 18 3
split_gain=4216.82 815.76 58.982 50.4836 85.9316 31.3689 8.64393 5.93574 5.06035 4.25668 2.45403 40.5394 4.25404 3.92439 1.91718 1.68168 1.48321 1.02058 0.831151 1.67253 0.739519 2.52811 0.663534 0.347329 1.06494 0.308258 0.299987 0.265633 0.229243 0.2158 0.208714 0.879987 0.594577 3.62622 0.209732 0.178934 1.9628 0.294887 0.151028 0.0657444 0.0464237 1.15029 0.0444174 0.0242658 0.153073 0.028239 0.125359 0.0516266 0.0231123 0.0217893 0.0147351 0.00996849 0.00771848 0.00601356 0.00562851 0.00505933 0.00309196 0.00292729 0.00206717 0.00235457 0.00202043 0.00161246
threshold=3.5000000000000004 0.0088563218390804652 15.500000000000002 59.500000000000007 19.500000000000004 34.000000000000007 17300.000000000004 4761.9000000000005 28.643856649304674 78.786111111111126 4.5000000000000009 10.000000000000002 0.97327964601788408 166.59945833333339 179.50000000000003 0.22133747344590707 8341.5393185645826 13245.650621118015 0.91876329247018873 0.91661667233957955 89.25479148977297 0.35027190438652667 1.1827083333333335 1011.4142894512753 0.49143034815887904 43.286606117434708 9.186308161708622 0.30007930246172226 73.488287815126057 5.4790254251694908 0.89754585277982357 241.72804621848744 0.8760337386638668 20.500000000000004 0.0078092035864978952 0.30007930246172226 238.76151960784316 13.510188652255357 63.789289007937548 241.81589635854343 14.118983890274192 0.48953383632833075 0.033603506227972139 8.2053318749487776 0.78541981662826743 5.9305580748935691 5.2208590556144676 0.62388354238043575 4.4578672796985996 71.744109712324345 22664.733333333337 37391.35070028012 223.50000000000003 259.50000000000006 4551.9500000000007 74.418861498464949 1.6611818181818181 576.00000000000011 435.50000000000006 65.58396863553115 20.500000000000004 0.01078167429230369
decision_type=2 2 2 2 2 2 2 2 2 2 2 2 2 2 2 2 2 2 2 2 2 2 2 2 2 2 2 2 2 2 2 2 2 2 2 2 2 2 2 2 2 2 2 2 2 2 2 2 2 2 2 2 2 2 2 2 2 2 2 2 2 2
left_child=1 3 26 10 6 -3 8 -6 -5 -9 11 -1 -13 -14 -4 18 25 22 20 -20 21 -12 27 29 60 -11 -2 -10 38 -22 32 53 35 34 -34 36 -31 54 -29 49 43 -42 -27 45 -45 46 48 -47 50 56 -37 -46 -28 -32 -38 -44 58 -21 59 -40 -25 -36
right_child=2 5 14 4 7 -7 -8 9 17 16 15 12 13 -15 -16 -17 -18 -19 19 57 23 -23 -24 24 -26 42 52 28 -30 30 31 -33 33 -35 61 40 37 -39 39 -41 41 -43 55 44 51 47 -48 -49 -50 -51 -52 -53 -54 -55 -56 -57 -58 -59 -60 -61 -62 -63
leaf_value=0.077210611424337064 -0.047223985100774607 -0.063299821669045214 0.040470692670087544 0.024712985252711407 0.030352686418165267 0.077949890848029335 -0.01635805808613661 0.0088494750321717868 0.09491631250045901 -0.043073724079150916 0.090418950910602494 -0.065613157030902133 -0.038670023168598563 0.027236939570766585 0.094010429183301311 0.041735219657844151 -0.02278285659840892 0.052247509422240518 0.12194188629904903 0.07926157798952127 0.064964250790232145 0.023567266471116941 0.059120544403860886 0.077407786221132938 0.051127415202777006 -0.06564231937568879 -0.063278301888357688 0.0871424349767701 0.065952432754087922 0.035448116687835186 0.074171160298154862 0.049245742349183469 0.061189441524427568 0.13770428572542556 0.076915805259379619 0.077238229827410354 0.079328304088677304 0.06153749744092353 0.078983054928606022 0.085333463025568823 0.077350403754230496 0.046370369753372581 -0.0587128065484534 0.065469938290505181 0.077186175354928444 0.077166472923243967 0.068406499277388649 0.085324627800935263 0.081591309609624241 0.081535764172949055 0.079970910723427005 0.080954316871042667 -0.060643616285279672 0.07741819958734969 0.077229722457703376 -0.060925554999493314 0.075845670382612349 0.077257171741752007 0.07716554250514826 0.077498380893346958 0.078870407615850416 0.078566734329702209
leaf_weight=156.045978307724 2.9180750846862784 125.00890120863914 2.4853181242942801 5.2537938058376303 2.9719256460666683 4.0582576394081107 2.9036852717399588 3.250119715929034 2.5656835064291945 2.7700477838516298 2.9817622900009146 3.2094106078147879 3.7495055794715864 5.6805387139320374 5.1097311154007912 3.4186873137950888 3.494198113679885 4.2541950643062583 3.0638479962944967 3.1237169802188873 3.7447591722011557 2.6900412738323212 4.4534339010715476 9.676254481077196 5.308338224887847 4.1256442368030539 1340.8894031643867 5.4726356565952292 3.4332291968166819 3.0847633481025687 1.5998552010860319 3.5231845416128627 2.8030974566936475 2.816216964274644 2.8076532483100891 797.56873134872876 3.425814449787139 3.1210565567016593 4.0596589446067828 3.0651275515556327 61.175746887922287 3.1505974736064664 6.784162759780882 3.0711083412170392 4.0570985078811646 5.3053267598152143 4.0074750483036032 3.056439220905304 3.0848579108715048 3.3965675234794608 4.9637519717216483 3.09339639544487 2.7855793535709372 13.116050952114163 47.438491940498352 4.1717986762523651 3.1571802273392668 4.3694647252559662 19.036675184965134 7.8040496110916138 3.1232445538043967 3.1254155957140028
leaf_count=500 10 430 8 18 10 13 10 11 9 10 10 11 13 19 18 11 12 14 12 10 12 10 15 31 17 14 4613 18 12 10 7 15 9 14 9 2568 11 10 13 10 196 12 25 10 13 17 13 10 10 11 16 10 10 45 152 15 11 14 61 25 10 11
internal_value=0.000616755 0.0609742 -0.0624544 0.073001 0.038205 -0.0588585 0.0680716 -0.0363923 0.0717888 -0.0444571 0.0758214 0.0702346 -0.0158909 0.00103149 0.0764907 0.0767445 -0.0525736 0.0758635 0.0768622 0.0908186 0.0767158 0.0587123 0.0776434 0.0768178 0.0699559 -0.0584046 -0.0632381 0.07923 0.0784157 0.0769442 0.07699 0.0716914 0.0770906 0.0883655 0.0724605 0.0769534 0.0742391 0.0764557 0.0793461 0.0782931 0.077127 0.0758331 -0.0612205 0.0772275 0.0748064 0.0772577 0.0772279 0.0801485 0.0772717 0.077717 0.0772551 0.0788163 -0.0632728 0.0770652 0.0773711 -0.0595554 0.0773361 0.0780928 0.0774884 0.0780064 0.0777647 0.0777855
internal_weight=2769.26 1415.07 1354.19 1286.01 96.4238 129.067 68.8559 27.5679 65.9522 24.596 1189.58 168.685 12.6395 9.43004 7.59505 1020.9 21.3459 60.6984 1017.48 10.557 1006.92 5.6718 56.4442 1001.25 18.1078 17.8517 1346.59 51.9908 49.4251 983.141 979.396 18.2391 961.157 11.5524 8.73617 949.605 57.0701 53.9854 45.9919 40.5193 892.535 64.3263 15.0816 828.208 10.2216 817.987 809.625 8.36177 805.617 37.4541 802.532 7.15049 1343.67 14.7159 50.8643 10.956 34.0576 7.49318 30.9004 11.8637 12.7995 5.93307
internal_count=9274 4615 4659 4172 324 443 227 97 217 87 3848 543 43 32 26 3305 76 199 3294 36 3258 20 185 3238 58 64 4633 170 161 3180 3168 67 3101 43 29 3058 183 173 149 131 2875 208 54 2667 33 2634 2607 27 2594 121 2584 23 4623 52 163 40 110 24 99 38 41 20
is_linear=0
shrinkage=0.05


Tree=15
num_leaves=63
num_cat=0
split_feature=1 7 16 31 69 34 18 72 83 29 67 72 58 61 69 61 62 37 20 64 49 74 36 45 58 11 32 18 43 45 81 32 54 72 18 2 31 19 35 72 42 25 58 92 75 83 83 99 18 36 18 37 46 5 20 44 47 19 86 2 85 87
split_gain=4258.27 420.164 23.9004 0.327146 0.915463 0.247727 0.181744 0.10423 0.11017 0.0782761 0.0689382 0.0526211 0.0330505 0.0395898 0.0314956 0.0251117 0.0257027 0.0166173 0.0130973 0.013857 0.00975381 0.00919337 0.00757657 0.0390874 0.0472755 0.0602374 0.0428687 0.00639618 0.0119524 0.0063932 0.00424924 0.00366581 0.00289084 0.00263998 0.00544062 0.00543021 0.00294832 0.00263624 0.00240004 0.00221465 0.00158531 0.00159758 0.0011579 0.00106414 0.00101956 0.001022 0.00098634 0.00760689 0.0187845 0.00225078 0.012632 0.00114443 0.0034949 0.000949802 0.00094423 0.00300868 0.000911473 0.000661773 0.000655477 0.000625707 0.000583306 0.000545854
threshold=13.500000000000002 5.0000000000000009 0.016016765206959081 0.2772689075630253 201.00000000000003 1.8894537815126053 59.500000000000007 300.50000000000006 0.44407080466049487 0.99676078391632195 271.50000000000006 342.50000000000006 1724.6666666666667 78.497298528433404 589.50000000000011 150.82206965580207 0.13622319992579537 26.955710584752122 12.500000000000002 0.20192806949053294 0.69749256649648161 52.265391595321354 137.00000000000003 171.50000000000003 2095.7498599439782 0.46199735396101732 66.347508134296802 36.500000000000007 277.50000000000006 455.50000000000006 285.6441473845266 65.667259524999324 32.970980403063557 98.500000000000014 240.50000000000003 6.3178537956888485 0.28558823529411775 1.8957132172040125 5.469040139470839 195.50000000000003 1136.5558235091905 0.4536071836020657 3831.7139498432607 61.008562998739016 1217.9862777777782 0.40961996011617058 0.44956419099923767 242.2384803921569 29.000000000000004 4.5000000000000009 29.000000000000004 64.259453546164721 19.000000000000004 105.18263620448178 33.000000000000007 219.50000000000003 13052.883582701374 0.26376543057513901 0.23387922538986056 9.7672825740681759 0.18410959876679581 1.6121754201680665
decision_type=2 2 2 2 2 2 2 2 2 2 2 2 2 2 2 2 2 2 2 2 2 2 2 2 2 2 2 2 2 2 2 2 2 2 2 2 2 2 2 2 2 2 2 2 2 2 2 2 2 2 2 2 2 2 2 2 2 2 2 2 2 2
left_child=6 2 3 5 -5 10 9 8 21 22 39 -9 -10 20 15 16 -15 -3 19 -19 -14 -8 38 24 61 -26 -27 37 31 -22 -16 -29 -23 36 57 -36 -20 44 40 53 41 42 43 -1 45 -25 47 51 -49 50 -48 -45 -53 59 55 -47 -57 -35 -33 -2 -31 -24
right_child=1 17 -4 4 -6 -7 7 11 12 -11 -12 -13 13 14 30 -17 -18 18 33 -21 29 32 23 27 25 26 -28 28 -30 60 -32 58 -34 34 35 -37 -38 -39 -40 -41 -42 -43 -44 46 -46 54 49 48 -50 -51 -52 52 -54 -55 -56 56 -58 -59 -60 -61 -62 -63
leaf_value=-0.07079567193172269 0.062623808071586309 -0.066364240902121938 -0.071166084817485542 0.062396613115418886 0.029321398374274013 0.048149006682757595 -0.065094261414181412 -0.056561367498917908 -0.07367210013900119 -0.063615480835661931 0.069624768265103706 -0.065534644184644802 -0.073069934241031809 -0.063607675395148736 -0.068522297877749896 -0.062996866587644709 -0.069431533110018082 -0.074768423293067682 -0.072022088774561191 -0.070307695691989441 -0.068057577931783839 -0.060990774903723503 -0.070216611974318582 -0.070466019422459003 -0.069873579701801691 -0.054335181269646551 -0.06489737590695209 -0.068000159446065703 -0.066538443990503904 -0.070320687426082579 -0.071050118896146749 -0.070677536426809726 -0.063076093402959499 -0.069976856352137351 -0.066540468501765107 -0.069622619993123011 -0.070022750258506336 -0.071189410059108171 -0.071082104393299358 0.063191201581513354 -0.069029326375876318 -0.068765192948631218 -0.068888807561236803 -0.069876172426556499 -0.070552820705658062 -0.066785971961606891 -0.069873383746433981 -0.069788364161646674 -0.066403289970597246 -0.069880515228241846 -0.073053494589298273 -0.069872015482774316 -0.068073533122023092 0.06285600869756712 -0.069878320635681807 -0.069810157214987789 -0.068844032025694626 -0.070741288938211452 -0.069801788150297486 0.062057983365732053 -0.07123714978183536 -0.069315717225594028
leaf_weight=3.0707310736179343 4.902770221233367 2.903944879770278 3.3779512941837302 7.4777358174324018 2.9047313332557678 3.1976469755172721 4.6870704889297468 3.3580581694841376 3.4029889404773703 5.1110718846321097 3.0223678648471823 3.1818682849407196 3.0905665457248679 2.8954265154898184 3.0298761725425711 5.2083000540733329 5.4804003350436687 3.0929293334484091 3.0812426805496207 3.9830484986305237 3.3125337660312635 2.8137879967689514 3.3704494535922986 5.8298746952787033 2.4463330209255219 1.8433430790901186 2.0062055289745331 2.7210126295685795 4.1374886259436598 3.9851467907428741 3.6837641298770905 3.0688935518264753 4.0599585175514221 36.422136664390564 2.3418513089418402 3.6663434207439423 4.5918372571468353 4.0141134635778135 4.0010911946883416 4.3554628789424887 5.7789433896541587 3.3224905729293814 3.0386648774147025 290.61441233754158 5.2152628302574149 0.99964415375143545 19.579916656017307 14.983888179063799 5.6412731409072867 662.45983408018947 3.715192884206771 10.707695692777632 3.612577110528945 3.7566364109516135 53.537781000137329 12.231532603502272 3.0500267205061382 3.0698261260986319 7.034040242433548 1422.4325025677681 3.0766461789608002 3.3551430702209473
leaf_count=10 17 10 11 26 10 11 16 13 11 19 10 11 10 11 10 18 19 10 10 13 11 10 11 20 8 14 7 10 17 13 12 10 14 119 10 12 15 20 15 15 19 11 10 950 17 9 64 49 19 2167 12 35 12 13 175 40 12 10 23 4967 10 11
internal_value=0.000497582 0.0561992 0.0616777 0.0619867 0.0531431 0.0620504 -0.0696549 -0.0668541 -0.0676496 -0.0697894 0.0620813 -0.0609271 -0.0689756 -0.0685022 -0.0671077 -0.0657231 -0.0674183 -0.0700586 -0.0702366 -0.0722575 -0.0706044 -0.0633868 -0.069817 -0.0694318 -0.0668523 -0.0637385 -0.0598397 -0.0697616 -0.0688752 -0.0698699 -0.0699093 -0.0696291 -0.0622225 -0.0699677 -0.069823 -0.0684213 -0.0708256 -0.0699387 -0.0698599 0.0620654 -0.0698551 -0.0698598 -0.0698634 -0.0698663 -0.0698766 -0.06983 -0.0698635 -0.0697918 -0.0688625 -0.0698975 -0.0703806 -0.0698547 -0.0694183 0.062062 -0.0697769 -0.0694435 -0.0696173 -0.0700363 -0.0700678 0.0620599 -0.07072 -0.0697672
internal_weight=2724.35 1518.58 1455.43 1452.05 10.3825 1441.67 1205.77 55.2664 48.7265 1150.5 1438.47 6.53993 37.1656 33.7627 20.2978 13.5841 8.37583 63.1532 60.2492 7.07598 13.4649 11.5608 1145.39 114.861 13.0215 6.29588 3.84955 101.84 16.9614 10.3743 6.71364 12.8239 6.87375 53.1732 45.5002 6.00819 7.67308 84.8782 1030.53 1435.45 1026.53 1020.75 1017.42 1014.39 80.8641 75.6489 1011.31 325.56 20.6252 685.755 23.2951 304.935 14.3203 1431.09 69.819 16.2812 15.2816 39.492 10.1029 1427.34 7.06179 6.72559
internal_count=9274 5289 5080 5069 36 5033 3985 189 165 3796 5022 24 125 114 70 48 30 209 199 23 44 40 3777 404 51 29 21 353 60 34 22 43 24 176 151 22 25 293 3373 5012 3358 3339 3328 3318 273 256 3308 1065 68 2243 76 997 47 4997 236 61 52 129 33 4984 23 22
is_linear=0
shrinkage=0.05


Tree=16
num_leaves=63
num_cat=0
split_feature=53 18 1 70 47 18 61 18 34 17 88 22 6 69 61 94 31 68 61 61 24 6 18 21 72 56 88 65 76 17 20 88 94 43 81 18 56 0 68 8 94 98 90 50 6 71 67 44 21 69 1 34 68 77 48 13 21 18 94 75 25 94
split_gain=94.2562 74.0837 35.5569 21.2835 17.4304 49.0596 19.8856 11.3791 9.52048 8.00008 3.13408 6.8754 2.82601 2.61097 2.35469 1.93748 1.66308 5.82091 1.39508 0.525825 0.258449 0.00596447 0.000739551 0.0001056 9.96202e-05 1.83008e-05 0.000219916 1.37363e-05 4.77943e-06 6.43945e-06 2.12278e-06 2.59627e-06 1.36704e-06 1.22294e-06 1.32098e-06 1.05601e-06 9.35922e-07 5.54756e-07 8.34857e-07 5.29192e-07 4.55109e-07 3.83388e-07 2.72669e-07 2.612e-07 6.25635e-07 2.56814e-07 1.14461e-07 9.53632e-08 9.58174e-08 8.23555e-08 7.16193e-08 6.88587e-08 2.18717e-07 4.23661e-08 3.50199e-08 3.31616e-08 3.06789e-08 6.27933e-08 1.00961e-07 2.96423e-08 2.82629e-08 2.69281e-08
threshold=19.500000000000004 59.500000000000007 59.500000000000007 63165.000000000007 4615.4305322128866 29.000000000000004 73.191054468048875 32.500000000000007 1.5324583333333337 0.011254139072847684 67.000000000000014 1510.0000000000002 0.013657218120520306 589.50000000000011 74.508688878884939 5.2315724799892003 0.30239495798319332 5480.2478991596645 72.353117893993826 79.107454794677963 0.90370833333333411 0.10170900236278935 240.50000000000003 0.96626030593235546 20850.000000000004 319.50000000000006 35.000000000000007 4252.6198928488247 0.006396103896103897 0.0034817470213355513 90.000000000000014 35.000000000000007 11.146712651615337 51914.500000000007 24.062373946344866 36.500000000000007 288.50000000000006 0.045872258265707795 12635.172413793107 3.5000000000000004 7.3575676137787154 0.37922214906104973 0.46809984176037683 0.036461464733925697 0.17317968834898365 1391.1833333333336 271.50000000000006 521.00000000000011 0.1968660714285716 233.00000000000003 18.500000000000004 4.3340756302521015 6887.6500000000005 0.013776410131133279 89.25479148977297 34.000000000000007 0.8760337386638668 36.500000000000007 7.0715232975032825 649.26134960008096 0.42220085696807746 11.353378906469885
decision_type=2 2 2 2 2 2 2 2 2 2 2 2 2 2 2 2 2 2 2 2 2 2 2 2 2 2 2 2 2 2 2 2 2 2 2 2 2 2 2 2 2 2 2 2 2 2 2 2 2 2 2 2 2 2 2 2 2 2 2 2 2 2
left_child=3 23 9 4 5 39 8 14 -7 -3 16 12 -12 15 -8 -11 24 -18 -10 20 -17 -22 27 35 25 28 -27 -14 29 -6 33 40 -9 41 -35 54 37 38 -29 -1 -32 43 49 44 -31 47 55 51 -49 -4 61 53 59 -45 -2 -30 60 -58 -59 -53 -55 -34
right_child=1 2 42 -5 10 6 7 32 18 13 11 -13 22 -15 -16 19 17 -19 -20 -21 21 -23 -24 -25 -26 26 -28 36 46 30 31 -33 50 34 -36 -37 -38 -39 -40 -41 -42 -43 -44 45 -46 -47 -48 48 -50 -51 -52 52 -54 56 -56 -57 57 58 -60 -61 -62 -63
